
//<![CDATA[

// a few things don't have var in front of them - they update already existing variables the game needs
lanesSide = 2;
patchesAhead = 8;
patchesBehind = 2;
trainIterations = 100000;

var num_inputs = (lanesSide * 2 + 1) * (patchesAhead + patchesBehind);
var num_actions = 5;
var temporal_window = 6;
var network_size = num_inputs * temporal_window + num_actions * temporal_window + num_inputs;

var layer_defs = [];
layer_defs.push({
    type: 'input',
    out_sx: 1,
    out_sy: 1,
    out_depth: network_size
});
layer_defs.push({
    type: 'fc',
    num_neurons: 100,
    activation: 'relu'
});
layer_defs.push({
    type: 'regression',
    num_neurons: num_actions
});

var tdtrainer_options = {
    learning_rate: 0.001,
    momentum: 0.0,
    batch_size: 64,
    l2_decay: 0.01
};

var opt = {};
opt.temporal_window = temporal_window;
opt.experience_size = 3000;
opt.start_learn_threshold = 500;
opt.gamma = 0.7;
opt.learning_steps_total = 10000;
opt.learning_steps_burnin = 1000;
opt.epsilon_min = 0.0;
opt.epsilon_test_time = 0.0;
opt.layer_defs = layer_defs;
opt.tdtrainer_options = tdtrainer_options;

brain = new deepqlearn.Brain(num_inputs, num_actions, opt);

learn = function (state, lastReward) {
    brain.backward(lastReward);
    var action = brain.forward(state);

    draw_net();
    draw_stats();

    return action;
}

//]]>
    
/*###########*/
if (brain) {
brain.value_net.fromJSON({"layers":[{"out_depth":380,"out_sx":1,"out_sy":1,"layer_type":"input"},{"out_depth":100,"out_sx":1,"out_sy":1,"layer_type":"fc","num_inputs":380,"l1_decay_mul":0,"l2_decay_mul":1,"filters":[{"sx":1,"sy":1,"depth":380,"w":{"0":-0.036058176542116196,"1":-0.03329182285464808,"2":0.012231008124940443,"3":0.03940281467401006,"4":-0.026245602426587137,"5":0.09310632832939954,"6":0.023447744890363498,"7":-0.027831030934813077,"8":-0.03368440872222698,"9":-0.09804433395507736,"10":0.02037101264808334,"11":0.0531859975604374,"12":-0.025438126277156414,"13":0.0013335341966358091,"14":-0.032803371985481965,"15":-0.0418890520290731,"16":0.029795494112559134,"17":-0.009003424522750823,"18":-0.06907916366392974,"19":0.020040131107117148,"20":-0.015245803747019082,"21":-0.09089443052460974,"22":0.042653279150305146,"23":0.004133889914268023,"24":-0.018200937364816625,"25":0.10196125239592932,"26":-0.013859433807005613,"27":-0.02053242729396945,"28":-0.05891979078588187,"29":-0.0023019494785992784,"30":-0.05809530864109523,"31":-0.0172913683580012,"32":0.009708418318420295,"33":-0.05012745022416445,"34":-0.018885478869178008,"35":-0.0047092418257869365,"36":-0.0010183099438751855,"37":-0.06342720439444499,"38":0.09946800514673335,"39":0.000537696256262466,"40":-0.009566578623066665,"41":-0.00556114923187375,"42":0.061708284424526756,"43":0.039344597976745506,"44":-0.04183717954988837,"45":0.07280624150172142,"46":0.03958664475473872,"47":-0.018288671874824063,"48":-0.06856212577086349,"49":-0.0058881516884772365,"50":-0.07800121008311386,"51":0.02202402603084296,"52":0.06690395497226156,"53":-0.05306627333331706,"54":0.05015675427073251,"55":-0.01723168358155961,"56":-0.004938903542469299,"57":-0.001154424637055113,"58":0.02925450821891097,"59":0.026448995246839392,"60":-0.06994743798158912,"61":0.02757236026681064,"62":0.018152531722272526,"63":0.06512870047712535,"64":0.03452103554247387,"65":-0.01104996099523959,"66":-0.12969014745805646,"67":0.03422433048924893,"68":-0.02907517827290185,"69":-0.021299824362850328,"70":0.052796618331962766,"71":0.06541176603146172,"72":0.025173658148730484,"73":-0.018674195784269983,"74":-0.0013011082760774303,"75":-0.03078236202837551,"76":0.061099354084752144,"77":0.07376616222928095,"78":-0.04623718457353684,"79":0.09937797767113188,"80":-0.029736242720312833,"81":0.025628613179007807,"82":-0.06544748058905998,"83":0.0013196304581465088,"84":0.0034787660622579383,"85":-0.0573044581060997,"86":0.0058357962196534715,"87":-0.027774139334953957,"88":0.009809621587923905,"89":-0.010988839450128162,"90":0.007516453712448098,"91":0.13956832861657387,"92":-0.05645252975315512,"93":-0.011636651638741172,"94":-0.03213254100404858,"95":0.002225015230343181,"96":-0.06769696330061623,"97":0.049315646699192334,"98":-0.014099688780588432,"99":0.07175474432430953,"100":0.01564706312096139,"101":-0.0447749316842039,"102":0.04353008379508812,"103":-0.0615700159136274,"104":-0.05918083638228765,"105":0.0755502932801529,"106":0.01929455477597345,"107":0.058091589764548465,"108":-0.008938881484597873,"109":0.05697376249145095,"110":-0.06377915987040107,"111":-0.05558065424494653,"112":0.000004887201811967785,"113":-0.05587100338764928,"114":0.08203509813540825,"115":-0.030622279861466147,"116":-0.07963758440508942,"117":-0.027775925465072186,"118":-0.0791496601415911,"119":-0.021123001530136864,"120":0.029993160671665454,"121":0.008670312184796065,"122":-0.05555735039496587,"123":-0.1525671279255147,"124":-0.06366791342761112,"125":-0.013703127597164863,"126":-0.0268459083220187,"127":0.047025382328404204,"128":-0.024477996690285362,"129":0.03131535411921797,"130":0.005131377218127433,"131":-0.057033904626008824,"132":0.08311903011032067,"133":0.023078609351987436,"134":-0.08439130543154014,"135":-0.08820930795002535,"136":0.018565779359214614,"137":0.08154412455304427,"138":0.044411545695053296,"139":0.010806386332377484,"140":0.0739178487044101,"141":-0.08392908365886521,"142":-0.09253238859784517,"143":0.03426094328525718,"144":0.005002212158151537,"145":-0.08516848176927916,"146":-0.016255560265429504,"147":0.048837406578588205,"148":-0.04651996483907509,"149":0.00051786831646033,"150":0.009349153181811122,"151":0.021180846346978636,"152":-0.016993027542735586,"153":-0.049871140465266875,"154":0.015688840983881375,"155":-0.01149583194315241,"156":-0.003575420107882507,"157":-0.066686279031071,"158":-0.09773684396711885,"159":-0.03918627996356302,"160":0.03322459216086768,"161":0.08288115432999635,"162":0.016073572634398375,"163":0.06121335913206377,"164":-0.08609432572395936,"165":-0.06068757479029244,"166":0.013443191141474131,"167":-0.051700521237840476,"168":-0.0672158194840635,"169":0.016412415885931397,"170":0.12296342351735888,"171":-0.01643514479221683,"172":0.009666712594831796,"173":-0.022272456464428606,"174":0.023192476725735968,"175":-0.020083074177211044,"176":0.06433202780363323,"177":0.021250816233584605,"178":0.07871801736571865,"179":-0.0614472967903517,"180":0.074412107350874,"181":-0.046059731053362744,"182":0.05389847891728871,"183":0.0610695381747075,"184":-0.05507739288282284,"185":0.0346253696239234,"186":0.019747124329525124,"187":-0.01216576325882849,"188":-0.05540356859315259,"189":0.03862958633237794,"190":0.11181170556788962,"191":-0.0040083862861228,"192":-0.024896342888656338,"193":-0.0029569548093569906,"194":-0.09786715464958157,"195":0.003843173827479306,"196":-0.024181278437793472,"197":0.05931637584563151,"198":0.0609641271218003,"199":0.04995973731964523,"200":-0.01675177436789956,"201":0.008716256043176912,"202":0.038140074521386756,"203":0.06663598680853408,"204":-0.03143872211983772,"205":-0.012754795190901317,"206":0.044037768378952465,"207":0.0076604356178080766,"208":0.045534455067502935,"209":0.01548638505436433,"210":-0.007641465508405799,"211":-0.0004229241281474902,"212":0.04716089853383641,"213":-0.0828792278329803,"214":-0.03372946132634063,"215":0.0053914305018638396,"216":0.01762345947811433,"217":-0.05705540577770691,"218":-0.0311715735937531,"219":0.0019484844878741735,"220":0.06446438220841638,"221":0.0067321781819484365,"222":-0.06514546096017727,"223":0.04264045003472329,"224":0.026139320126183377,"225":-0.00793043417006396,"226":0.0051612997985385125,"227":0.03588165715426626,"228":0.08660385148263001,"229":0.019981436980442864,"230":-0.0379856767673331,"231":-0.034919641609116564,"232":0.011554444025948058,"233":0.013632327504984899,"234":-0.006599183081409694,"235":-0.006579612963293276,"236":-0.008210997421092348,"237":-0.006598285657850649,"238":0.021146434401042913,"239":-0.0338611679137087,"240":-0.01677649741969505,"241":0.013454457304409199,"242":-0.027513654790065737,"243":0.04945869677919306,"244":-0.004243230034390201,"245":0.020285303245144555,"246":-0.031617521912090704,"247":0.06588720448043794,"248":0.017781478658214056,"249":0.11126839284886875,"250":-0.08326247406057288,"251":0.022882356319395374,"252":0.07879599773967047,"253":-0.009627804560574669,"254":-0.05961107768339308,"255":-0.052315971176392057,"256":-0.027197099324836254,"257":-0.0640471124334048,"258":0.030670373011714692,"259":-0.03743806911072292,"260":-0.016974340922460713,"261":-0.025919497979247565,"262":0.032008401299900575,"263":0.01804411498195451,"264":0.016981562122693947,"265":0.02658238803293771,"266":0.017792660734443973,"267":-0.08930307696801315,"268":-0.009269161930600003,"269":-0.03873310759588876,"270":-0.07446718342549076,"271":0.08213586535628194,"272":0.1888288085205778,"273":-0.1804577669181068,"274":0.05852881274375177,"275":-0.046049042636631767,"276":0.030358064990516617,"277":-0.05203985051056935,"278":-0.000297786028426034,"279":0.02777546666138458,"280":-0.060506451676962406,"281":-0.019444277928337042,"282":0.015164920449894218,"283":-0.01164217598882553,"284":0.007096907624346019,"285":-0.03882239918656977,"286":-0.03571449033929978,"287":0.051627883101855246,"288":0.006019025095310496,"289":-0.03065482787469985,"290":0.019073425139144097,"291":-0.049863637941581954,"292":-0.040915409485667235,"293":0.03948341342734085,"294":0.024397169495037792,"295":-0.011490316402937966,"296":0.008305239251460771,"297":-0.03557980680121597,"298":0.06753439100579954,"299":0.025949287588331853,"300":0.034831792980719,"301":-0.03854173278724277,"302":-0.00913225450078922,"303":0.03486709515558863,"304":-0.04852441585467962,"305":0.017803448245386055,"306":0.04368329896385771,"307":-0.0026718714686126675,"308":-0.005651758801828574,"309":-0.051308753266411274,"310":-0.08768534033235469,"311":-0.04871624186157129,"312":-0.02001918676789969,"313":-0.07320593847061115,"314":0.03402075549256446,"315":0.03832795940172755,"316":0.03467745713379668,"317":-0.0034360538910253534,"318":0.031819714531065135,"319":-0.0015858331378735446,"320":-0.003367877741454608,"321":0.03705498114853064,"322":0.01051860594053992,"323":0.08910478745015225,"324":-0.0241366712422993,"325":-0.06614208044908085,"326":0.05861115853349578,"327":-0.119142360027278,"328":-0.021682439204855332,"329":-0.05180108785427715,"330":-0.09618782193747775,"331":-0.00280013212076985,"332":-0.049843119068794385,"333":-0.014588870814667006,"334":-0.039439431779167436,"335":-0.08209929241381651,"336":0.04295631980541261,"337":-0.01207171030364956,"338":-0.031148717710668596,"339":0.03231558446331478,"340":0.011900813795319017,"341":-0.023548717866905388,"342":-0.010075071945433677,"343":-0.016478031241975357,"344":-0.02590425705774974,"345":-0.11350804808172099,"346":-0.01728690602763019,"347":-0.017570813798754477,"348":0.0003974780728673886,"349":0.0007717263856795644,"350":-0.0904566246635872,"351":-0.10021945396576025,"352":-0.006034718396817725,"353":-0.020461066618560102,"354":-0.014810700425514198,"355":0.09767490809553707,"356":-0.04675482804347808,"357":-0.0053795877947712175,"358":0.011168310031088539,"359":-0.0017777381369290311,"360":0.12197367636772685,"361":-0.03625762955746369,"362":-0.003002731853005811,"363":0.00782760441345454,"364":-0.08206701878588997,"365":-0.05658796510285345,"366":-0.004042087007753217,"367":0.018385514699396036,"368":-0.002352222060029004,"369":0.0030423507833886023,"370":0.04295441456168985,"371":-0.041378207687461754,"372":0.03445594161363084,"373":-0.04993279571011108,"374":0.025396797959722207,"375":-0.08358675704266659,"376":0.044466900196950036,"377":0.06781862408745802,"378":-0.008200562931891316,"379":0.005139613911045948}},{"sx":1,"sy":1,"depth":380,"w":{"0":-0.04820662458672384,"1":-0.11049144646446021,"2":-0.0036968220172401266,"3":0.09184120475240133,"4":-0.02523559356662179,"5":-0.03178337485859963,"6":-0.05590489900330366,"7":-0.06183485461928659,"8":0.03045944569087777,"9":-0.03398203875852064,"10":-0.019019252593266193,"11":0.04012914315561284,"12":-0.05226749593301173,"13":0.04134649187360931,"14":-0.012184322391817515,"15":-0.0018810743745973795,"16":0.04026101250218727,"17":-0.08662132518552972,"18":-0.06445299194240937,"19":0.01842469039282846,"20":-0.014660482179006392,"21":0.0362890867930251,"22":0.02537365575261344,"23":-0.042332597131670056,"24":-0.03392302517259521,"25":0.11481517033887086,"26":-0.038000306725116936,"27":-0.15709015475611413,"28":-0.029986078912967038,"29":-0.03285272464859677,"30":0.0059966623512927785,"31":0.0185645338329911,"32":-0.03598111706627385,"33":0.03213415916782773,"34":-0.0482863118110356,"35":0.04380394300138093,"36":0.03216534743912904,"37":-0.023332447880349026,"38":-0.0734049969095086,"39":0.038963826390614464,"40":0.061732706595922164,"41":-0.05977315478431667,"42":-0.04091151783689547,"43":0.00020426899730045177,"44":0.0026420733400702705,"45":0.049516661021093936,"46":0.028797872123255908,"47":-0.02140738917505768,"48":0.023871748268148186,"49":-0.00905495130410085,"50":0.04266750470610944,"51":-0.0006103809522542782,"52":-0.009038417967896738,"53":0.004195227972215596,"54":-0.012822624536438131,"55":-0.039890509732266266,"56":0.028971862772163244,"57":0.048602658729834235,"58":0.01712897848920848,"59":-0.04680113110951606,"60":0.03469018598005534,"61":0.0008650288965302027,"62":0.000981467075045094,"63":0.06353054171014315,"64":0.05511653136743997,"65":0.020489298539160615,"66":0.0158788876073154,"67":0.020056105220826844,"68":-0.04970254414682448,"69":0.12405625838811753,"70":-0.0364091916592033,"71":-0.06534257288925499,"72":-0.04674739481898719,"73":0.024155266643748778,"74":-0.05301857752052888,"75":0.062238428410958356,"76":-0.003706275529826161,"77":-0.07037419182962029,"78":0.027384376642887107,"79":0.04419976449147461,"80":0.055871004581778336,"81":0.07168656669445896,"82":-0.029924562843834525,"83":-0.026847758017362815,"84":0.02859706702066764,"85":-0.03644610366130851,"86":-0.003835003512498428,"87":-0.004974689071358067,"88":0.0092801193215036,"89":0.09207560650030873,"90":0.06549925099029534,"91":0.016619701156948434,"92":-0.028238087157344903,"93":-0.06379200481934387,"94":0.10433880404925869,"95":-0.02265595197901403,"96":-0.028382863835332006,"97":-0.005533190973197316,"98":0.0955922516321662,"99":0.024268627824902907,"100":-0.017571375413630925,"101":0.0502849774877544,"102":-0.05336528023882892,"103":-0.009469397240019464,"104":-0.024570064012981292,"105":-0.006127443575951858,"106":0.06583525667266017,"107":-0.06580010738918697,"108":0.05528121376798149,"109":-0.022357734988748355,"110":0.012464523423634596,"111":-0.000998654500907122,"112":-0.030291678619675935,"113":0.02298762884715293,"114":-0.09220600904042696,"115":-0.0069363342824392635,"116":-0.008108546920431099,"117":-0.01565683504266972,"118":-0.013534381377989733,"119":0.01382603527840601,"120":0.039741263853152256,"121":0.06943814814675349,"122":-0.04819741735724754,"123":-0.013802670849078956,"124":-0.06071036610839412,"125":0.005990876737655319,"126":-0.018280055995160596,"127":0.09858017564684131,"128":-0.035684322631477416,"129":0.0004869336669064987,"130":-0.014771690470989099,"131":0.026147534462111068,"132":-0.004100642712912597,"133":-0.008117926636846077,"134":-0.11183427789891176,"135":0.05094697599609527,"136":0.0202369217454504,"137":0.04278217695809962,"138":-0.05660138899391784,"139":0.08663478474264426,"140":-0.047807622224306574,"141":-0.014293524871869677,"142":-0.06818179702369863,"143":-0.039417820043788625,"144":0.027500521923889663,"145":-0.006635543612088476,"146":0.05372794868126635,"147":-0.03416493896152846,"148":-0.011841573091232111,"149":-0.04026715838310417,"150":-0.03174193979072889,"151":0.010875121944162831,"152":0.0842401568403286,"153":0.04423010764011508,"154":-0.0689961639392125,"155":0.022099889216570436,"156":0.06480719245470218,"157":0.010830075127147,"158":-0.08213501543719375,"159":0.05860327578974955,"160":0.02850005645370958,"161":-0.037567243211992805,"162":-0.01819914423113031,"163":-0.07571665917116298,"164":0.07701610198210329,"165":-0.008804237812152805,"166":-0.06110821888041092,"167":0.004504129132135866,"168":0.020774779087323586,"169":0.024423775974167703,"170":0.01174241847104103,"171":-0.022923742687417765,"172":0.03221390475366492,"173":0.07428423807241913,"174":0.08782373978680884,"175":-0.025548775805160705,"176":0.01569488014439193,"177":0.02834617564127977,"178":0.05291347779439523,"179":-0.0895741327965584,"180":-0.02501322185578835,"181":0.0712963480416893,"182":0.003343674960270557,"183":-0.026874429256596527,"184":0.014720010662385518,"185":-0.07789054089375216,"186":-0.07729213065336545,"187":0.031805155299753606,"188":0.005708090071471422,"189":0.07513254498075839,"190":0.06212303506100822,"191":0.023088026513038536,"192":0.011130050330768828,"193":-0.039345242640312875,"194":-0.018236543734958078,"195":-0.014710970621468516,"196":0.04372990591599965,"197":0.09298069618500827,"198":-0.08128793290748502,"199":0.0384693471627263,"200":0.012377278968765204,"201":-0.008259716438544406,"202":0.07114440767658671,"203":0.01022458401328452,"204":-0.08128549015373084,"205":0.03220004083111347,"206":0.03130888907237306,"207":-0.021195411546564964,"208":-0.04242970322372722,"209":0.03138392977859428,"210":-0.04640454168177091,"211":-0.03606990793179373,"212":-0.11143788824892747,"213":-0.11744713027760863,"214":-0.00843826073443956,"215":-0.05681780424304577,"216":-0.03738999733539618,"217":-0.022077927709662024,"218":0.025179094164438257,"219":-0.005445269275202817,"220":-0.0021129223111642525,"221":0.018789521979572756,"222":0.005656316864188209,"223":-0.0033959590684685026,"224":0.039892824946602,"225":0.05083294834056672,"226":-0.11629384833018674,"227":0.02342366910766449,"228":0.03278984644887586,"229":0.06269384670557922,"230":-0.09630836737626744,"231":-0.02997946319093833,"232":0.08114359500661215,"233":0.07852550916246505,"234":0.0700844193323531,"235":-0.09303635799506814,"236":-0.0472550845745231,"237":-0.02694512033004369,"238":0.0009772706636582348,"239":-0.037027755895147084,"240":0.07951951169197481,"241":-0.0025352481843236244,"242":0.01617323187936922,"243":-0.00004563838225236774,"244":0.028547495549692742,"245":-0.02410428636761924,"246":0.05483779964581376,"247":0.027514296890467645,"248":-0.05338615424242033,"249":-0.0064173394023379115,"250":0.0977606936421106,"251":-0.0021814274132596345,"252":-0.052270540920395514,"253":-0.013297796458249758,"254":0.021690339493255505,"255":-0.02418479830973414,"256":0.05089473464281477,"257":0.040026978355943384,"258":0.02879936119473237,"259":0.010347885051129062,"260":0.0699944057974725,"261":-0.04046674042429544,"262":-0.04206025270805913,"263":0.08856449751736599,"264":-0.057580197354623816,"265":-0.10473653851800084,"266":0.007926835815463126,"267":0.059788318052252834,"268":-0.04117424482059774,"269":-0.03153395211312425,"270":0.011621670183971911,"271":0.04263782664099683,"272":-0.006200823664941639,"273":0.011581233228115682,"274":0.02070636412256498,"275":-0.015283321318122047,"276":0.004269121241531527,"277":0.017946737553264223,"278":-0.016105100251359895,"279":-0.04051994405455794,"280":-0.06861472092071819,"281":0.025948963707338346,"282":-0.05935565784791819,"283":-0.030692380132154258,"284":0.021686279176288615,"285":-0.07025199229476652,"286":-0.041075501185006996,"287":-0.10027289100655268,"288":0.09907452683355385,"289":-0.03571783916185977,"290":-0.005311295136199732,"291":-0.05600641235392826,"292":0.027995160861771645,"293":-0.10115473788794634,"294":0.09079000697551269,"295":-0.00878794612330511,"296":0.05157246203602892,"297":0.035145338347696606,"298":-0.051162026517609656,"299":0.08468282453183959,"300":0.037245341797373994,"301":-0.0802153287319904,"302":-0.036805234890912794,"303":0.03980924069044889,"304":-0.06928441541067507,"305":-0.1071724993516902,"306":-0.0245825587179445,"307":-0.03790372628930626,"308":-0.028101790243175568,"309":-0.00801878140615429,"310":-0.03678920532748155,"311":0.018484359129340943,"312":0.05179159436845445,"313":0.007572624314041557,"314":0.04446387532005547,"315":0.04259788261259918,"316":0.03525615445651313,"317":-0.0320022352533428,"318":0.06851191366195523,"319":-0.0759499468815781,"320":-0.023011160906001634,"321":-0.03564070479661571,"322":0.06574652938975997,"323":-0.048169866736277156,"324":-0.002569354994967696,"325":0.04220566999483056,"326":-0.010755318625439356,"327":-0.00484734403412833,"328":-0.026868583366733166,"329":-0.02164238750664348,"330":-0.03825153636937503,"331":0.03152432908538755,"332":0.04859650626465623,"333":-0.039939907389460315,"334":-0.10697755168707994,"335":-0.09564531471223955,"336":-0.03788793867410222,"337":-0.004048670000693382,"338":0.0039882198852385685,"339":0.012563111412731958,"340":-0.052148867174038493,"341":0.004699210600213073,"342":-0.009959297938651454,"343":0.01311385038030045,"344":0.10020969330962815,"345":0.10059653934434,"346":0.07865086425890169,"347":0.027900100783801316,"348":0.04796808531712377,"349":-0.07080645440163359,"350":-0.041271236587593484,"351":-0.009090295009924875,"352":0.05606956440734802,"353":0.10815085720258324,"354":-0.05968092370361923,"355":-0.006206555136011221,"356":-0.0608238254884186,"357":0.014814139359958817,"358":0.011077246698213316,"359":-0.0738517011759374,"360":-0.045215982761359776,"361":0.10229288674029506,"362":-0.02130944305678689,"363":0.007171212825269122,"364":0.06474675280308542,"365":0.020118122043267146,"366":-0.005811333877614644,"367":0.04840889929301126,"368":-0.004635955240903391,"369":-0.021280779404474082,"370":-0.023805055756553072,"371":0.007400946847601886,"372":0.052357651686529456,"373":-0.03278826255302283,"374":-0.06960161171695979,"375":-0.004259708590876137,"376":-0.005726474170513103,"377":0.02657597478238263,"378":0.05896986968765586,"379":0.0338445684379223}},{"sx":1,"sy":1,"depth":380,"w":{"0":-0.001979860045649026,"1":-0.03028688625388594,"2":-0.06518652106882164,"3":-0.057427486830939976,"4":0.023349134223923835,"5":-0.006423068306510531,"6":-0.04766598589172562,"7":-0.0033684049908124804,"8":-0.045329737133557584,"9":-0.010614741867841912,"10":0.013375677893036533,"11":-0.1007319290955689,"12":0.00293763757010587,"13":0.01463990067355023,"14":0.05269043547544495,"15":-0.036097766730114396,"16":0.08528904572347493,"17":-0.03635779656640007,"18":0.005906095852685427,"19":-0.07746575870644687,"20":0.01777677643997563,"21":-0.007320860304229923,"22":-0.039417341606258954,"23":0.015974110710103157,"24":-0.006112692277030662,"25":-0.008093095017496119,"26":0.0023500774719397892,"27":-0.0034350531243714454,"28":0.08303864283752412,"29":-0.08930118794622204,"30":0.10968810735003591,"31":-0.006349604200950224,"32":-0.09172236292990738,"33":0.019609232146258832,"34":0.04639036009459064,"35":-0.08220410469394306,"36":-0.0687107201870966,"37":0.01691262505100966,"38":-0.029831597320282278,"39":0.001935650838755095,"40":0.024153384457525184,"41":0.023371193100391794,"42":0.04900928849454349,"43":0.012220018963139553,"44":0.08208482546271843,"45":0.054639546404600434,"46":0.07526061555138744,"47":0.013640896408179611,"48":-0.025481354525952234,"49":0.05162077415480868,"50":-0.09078810380773869,"51":-0.04128689575770402,"52":0.00024558193414252747,"53":0.030090729528635538,"54":-0.02278149300004485,"55":-0.035306874385928715,"56":0.007487343532785147,"57":-0.02939702576969263,"58":-0.012310665498611088,"59":-0.07157889226480285,"60":0.10101189121035736,"61":0.03273290082102749,"62":0.028050947803019848,"63":0.0007909385823847463,"64":0.032693099497960246,"65":0.028734719155843132,"66":0.06242211386946714,"67":0.06449985091805295,"68":-0.08311792065023278,"69":-0.005021904292001377,"70":0.004639063467816015,"71":-0.04624882965150898,"72":0.009881763726540076,"73":0.014685501879127759,"74":-0.014723055300894284,"75":-0.01769055955070423,"76":0.02241423192351458,"77":-0.06608973839809758,"78":-0.06837969198157798,"79":-0.05729536848941469,"80":0.022444073181694495,"81":0.07238223986762035,"82":-0.01360218594497341,"83":0.12075183882772078,"84":-0.0023456153943631182,"85":-0.01326431131897387,"86":0.009500000574890404,"87":0.03174495313191378,"88":-0.02063184861587521,"89":0.027013431729669246,"90":-0.03336528953079382,"91":0.06266485780469522,"92":-0.10378869411983371,"93":0.07783750049684378,"94":-0.017312005477617617,"95":-0.03586334463098692,"96":-0.12094826260284282,"97":0.019138351250105524,"98":0.006173918567904225,"99":0.018876941644732404,"100":-0.03866531369072665,"101":0.0007855250865863984,"102":-0.032437910259133985,"103":0.04307198063911644,"104":0.018595542056095697,"105":-0.0773517157748422,"106":-0.054494618947334754,"107":-0.0010312211356827202,"108":-0.012388870687868793,"109":0.11991117636658558,"110":-0.11502146283996242,"111":-0.04178515664201176,"112":-0.0069650286356123465,"113":0.06364876466508283,"114":0.07950565680842875,"115":-0.05010183180172775,"116":0.04496130358778076,"117":-0.014725316538396847,"118":0.07977990761115127,"119":0.05490833290186564,"120":0.07624731367462946,"121":-0.04931022663755205,"122":-0.026350100901954897,"123":0.0199905109927044,"124":-0.07106291861670959,"125":-0.029161487989395767,"126":-0.03958313924533613,"127":-0.05805190899417469,"128":-0.029500605193374774,"129":0.09346334360854441,"130":0.0783942577213629,"131":-0.0009875943357584686,"132":-0.07640895995383808,"133":-0.07910157498887767,"134":0.019268593162452385,"135":0.0016297630965022775,"136":0.028070573567648853,"137":0.09876295723198399,"138":0.07015353849706285,"139":0.02099477903569069,"140":-0.10652765194649605,"141":0.047952901122516295,"142":-0.013905192603297289,"143":-0.03540603206107538,"144":-0.020251980633314633,"145":0.027682152544059896,"146":0.014797584729781075,"147":-0.06283451989105136,"148":-0.007032241516353532,"149":0.0028549728089652966,"150":-0.028837680082217352,"151":0.15083678034067127,"152":0.05938608392632676,"153":-0.03610728435357548,"154":-0.10669691204008348,"155":0.05184171914395328,"156":0.017775163576764903,"157":-0.09706415917050215,"158":-0.06772434899603424,"159":-0.06780595563462836,"160":-0.03891919897048763,"161":0.04406245561186052,"162":-0.02580090137899525,"163":-0.00041281902335195864,"164":0.03234942307215997,"165":0.004449775881431685,"166":-0.005620045141801079,"167":0.05440545323090244,"168":0.043508131315761575,"169":0.017810257589572144,"170":0.037308751303738855,"171":0.020034974492481556,"172":-0.03876405727417004,"173":-0.043723702828506454,"174":0.029309493375315642,"175":0.02197523621531088,"176":0.06083162662117995,"177":-0.13186714338625122,"178":-0.01568461557025926,"179":-0.04066668584443573,"180":0.07311028253763863,"181":-0.0572393419475458,"182":-0.006422303324126639,"183":-0.04187131152034368,"184":0.11877601788619986,"185":-0.035068579580982015,"186":0.003126928221744456,"187":0.007370461493287741,"188":0.015075804945403162,"189":-0.06777428600422566,"190":-0.0301565358744787,"191":0.046685401204704165,"192":-0.08425397353807569,"193":-0.004296115592807864,"194":0.021549398860124566,"195":0.04520908839563573,"196":-0.15175144991537828,"197":-0.006173436145784788,"198":-0.09983132090571555,"199":0.032310563784270704,"200":-0.08882608653266597,"201":-0.04974972618941945,"202":-0.017019129488040047,"203":-0.02582606558027436,"204":-0.004578767033862119,"205":0.05177008946455768,"206":0.030773007302389462,"207":-0.06527868033059883,"208":0.004125665599267329,"209":-0.013759261633604266,"210":0.05775742390256539,"211":-0.07801490737518864,"212":0.016121004660890035,"213":0.10574874057223652,"214":-0.00601563947610429,"215":-0.04719305027745929,"216":0.0047252873592867955,"217":0.044066951262425234,"218":-0.03751551598876254,"219":-0.08477735367084836,"220":-0.05395722025046917,"221":-0.03796017957246223,"222":0.02829508163440836,"223":-0.08210864129240288,"224":0.01358582355242918,"225":-0.06028761784565617,"226":-0.039608835019613965,"227":0.08005649319155023,"228":-0.06250863691221388,"229":-0.09699687799536758,"230":-0.008011074796414308,"231":0.007420785047051435,"232":-0.09074919578847863,"233":0.004000329094819345,"234":0.057452567691413284,"235":0.027200076771017073,"236":0.008524678243401338,"237":-0.014388406151549116,"238":0.054144037422237216,"239":0.0358813613938721,"240":0.040864276393867714,"241":0.048763902699960796,"242":0.04473048755160856,"243":0.02198464483791176,"244":-0.030488420931960886,"245":0.06530039918491504,"246":0.0030001046990860867,"247":-0.05845895526908109,"248":0.015734409957628752,"249":0.014108571092409162,"250":-0.005702341499751682,"251":0.10993311947618165,"252":-0.04355367805889173,"253":0.00938495940205936,"254":-0.009376064055777502,"255":-0.02573402694864546,"256":-0.07385425555576823,"257":-0.07020806827339923,"258":-0.0386063040372504,"259":-0.014213422807425866,"260":-0.09847119392867808,"261":-0.028057974956900884,"262":0.044463290362955404,"263":0.005505189626692134,"264":-0.059258395264142776,"265":-0.008204562985759951,"266":-0.008851811455757167,"267":0.045486799763977584,"268":0.047070846568576234,"269":0.002165424067838658,"270":0.030170205978040085,"271":-0.04662860781192162,"272":0.0054532854823791145,"273":0.01318847272336329,"274":-0.02715801596248683,"275":-0.01267011983807053,"276":-0.09320697176520026,"277":-0.012490376041119855,"278":-0.021005067384220973,"279":-0.0044831873113325245,"280":0.03667184278632978,"281":0.015478612187317603,"282":-0.07971374860081563,"283":0.0989489368851983,"284":0.044066482954753246,"285":-0.03331920370705387,"286":0.01488671696947592,"287":0.04531786464859216,"288":-0.05924255583105321,"289":-0.041687222474745544,"290":-0.055209738244469404,"291":0.011084910675893041,"292":0.07033669297380049,"293":0.004627193764621014,"294":0.04768517891885302,"295":0.028521854287972843,"296":-0.06365396620310912,"297":0.007553592272678405,"298":0.04172586683130035,"299":-0.02361693712365153,"300":-0.01395237669997755,"301":-0.0455724077599341,"302":0.0013863090287074846,"303":0.00890369464950039,"304":-0.013398723908103946,"305":0.022376372645774648,"306":0.09634318955424576,"307":0.03212110063280921,"308":0.10645828430170962,"309":0.05270567146266099,"310":0.052068344964115686,"311":0.006138637556222769,"312":-0.04161056439751201,"313":-0.024455713169654412,"314":0.0009800205322647196,"315":0.05185403031744087,"316":-0.0495299696824746,"317":-0.01773827574312118,"318":-0.0005800097204807749,"319":-0.03071184078576809,"320":0.0010022515330518603,"321":-0.022779661710046882,"322":-0.018918549399677676,"323":-0.10972062100235394,"324":-0.03378317154726117,"325":-0.07899689778631105,"326":0.015700586550757026,"327":0.07479721369032262,"328":0.02328218215790004,"329":0.025538481719461003,"330":0.02748287774444629,"331":0.043213145702584645,"332":-0.02801270108986259,"333":0.018619575852248178,"334":0.03796989300514213,"335":-0.05991336867841403,"336":-0.024308872508608435,"337":0.06494672945807128,"338":-0.0508267207176533,"339":0.09165438688544723,"340":0.018113409373271598,"341":0.051977910721715925,"342":0.001764917618923611,"343":-0.03708771513292552,"344":-0.04050791676290048,"345":-0.05546556371676811,"346":0.07659773415029944,"347":-0.04607370762414587,"348":-0.041770785907134976,"349":-0.015024790616267544,"350":0.04593070536144532,"351":-0.047537392638587625,"352":0.033310103685521945,"353":0.08246396132046012,"354":0.05825070296058541,"355":-0.034119120170161735,"356":-0.0995240498558495,"357":0.03456206880261455,"358":0.02249593668193958,"359":0.00544378661740217,"360":-0.0590732756595412,"361":0.10631939942038793,"362":-0.03187843747611447,"363":-0.06425769097519743,"364":-0.03823703177451618,"365":0.07075694522211744,"366":0.043919272211995826,"367":-0.011924797340089168,"368":-0.008655878659354969,"369":-0.06269383041460079,"370":-0.011979791913047835,"371":-0.04688404655237543,"372":-0.015940087001990864,"373":-0.130526622658835,"374":-0.021143544265936044,"375":-0.02145852143127659,"376":-0.04164621022487019,"377":0.04214585300596678,"378":0.07165268451491676,"379":0.029899579803042895}},{"sx":1,"sy":1,"depth":380,"w":{"0":-0.03386595077283843,"1":0.05767922111882835,"2":-0.03504781932219299,"3":0.007247204236683543,"4":0.05488488883034724,"5":-0.017652120124654832,"6":0.007175577691448119,"7":0.03281738371496019,"8":-0.028563885919419964,"9":0.0790284862683949,"10":-0.010033431572122201,"11":0.02831439754964141,"12":-0.02139413565374758,"13":-0.01393276388072767,"14":0.04779674478205571,"15":0.03281725916015332,"16":0.07671234791771143,"17":0.059722965856098056,"18":-0.01645953077363359,"19":-0.06513400779846343,"20":0.02297787864030204,"21":-0.006465563098182751,"22":0.08013144138576182,"23":0.07129497852633783,"24":-0.01764596843269883,"25":0.0388504617735665,"26":0.04255469149845848,"27":0.06750396437801866,"28":-0.0636662931041292,"29":0.052207000163501924,"30":-0.0038713458559605047,"31":-0.051236128120679646,"32":0.1299205198630258,"33":-0.03555892752133277,"34":-0.024336376071322847,"35":0.03827325255641489,"36":-0.02238521378445851,"37":-0.009432427775350867,"38":0.05036988533996474,"39":-0.0019200060236273624,"40":-0.019364543468433405,"41":0.08522682352788966,"42":0.09043006103642069,"43":-0.03244101849192421,"44":-0.06771497035882212,"45":-0.026505427637151382,"46":-0.00002521033942377347,"47":0.036929826734432465,"48":0.10016955764738869,"49":0.025769728806888933,"50":-0.016231306650994575,"51":-0.03460326848619654,"52":0.02644236071892599,"53":0.036425215796790054,"54":0.033354839375907004,"55":-0.026487610435899717,"56":0.061471821374856274,"57":0.04117727162337668,"58":-0.06799039924896708,"59":0.016768140562308458,"60":0.042228097419630274,"61":0.05589710914158278,"62":-0.002979674164891522,"63":-0.018351516133391112,"64":0.09914663616824897,"65":-0.0038992511439705445,"66":0.06720392375030193,"67":0.03000619819761038,"68":-0.04856031090426725,"69":-0.04172259505530962,"70":0.019330366212969668,"71":0.005858679098086877,"72":-0.040266630704005914,"73":0.12003936121824331,"74":0.010162767375936872,"75":-0.04894612757419511,"76":0.033955664990208016,"77":-0.04440344536966914,"78":-0.004278130786821087,"79":-0.06863080780086596,"80":-0.05726307430006183,"81":0.01761591081830257,"82":-0.03073754632832793,"83":0.0005211931974472839,"84":-0.029648359369552492,"85":0.03428007848014776,"86":-0.0191793082749331,"87":0.019323957878946838,"88":-0.05074823724466911,"89":-0.016582497775992962,"90":-0.02729964731059948,"91":-0.05707243400396501,"92":0.003346252732578633,"93":-0.024899702282355603,"94":0.005352098516734981,"95":-0.059169857768275484,"96":-0.0382543676269104,"97":-0.08385298088791525,"98":-0.07277355296082137,"99":0.03947332065653267,"100":-0.09135057525354119,"101":0.013254940261371705,"102":-0.07258750393685796,"103":0.005257307885215359,"104":0.0381110846911547,"105":0.03312889116942029,"106":0.017525189345263162,"107":-0.04792498726641801,"108":0.0009360920505274892,"109":0.012546015251663342,"110":-0.08965967622517022,"111":0.07886756618542119,"112":0.028457602449314185,"113":-0.03899399366056857,"114":-0.01152651376692456,"115":0.0643561223499337,"116":0.06694834709388423,"117":-0.009093947742162415,"118":0.09987345015558055,"119":-0.042124924030464216,"120":-0.008249995310532273,"121":-0.003895348404891356,"122":0.05231615769403333,"123":0.04116952525009635,"124":0.016054077819501626,"125":-0.03789991949947794,"126":0.0390997451546682,"127":-0.05400843696737963,"128":0.048637685407464534,"129":0.03027710654647485,"130":-0.012868149568628225,"131":0.09249582111581917,"132":0.09035672427913566,"133":0.0024103447920826742,"134":0.0535739457347103,"135":0.031839565002378514,"136":0.02504214318605942,"137":-0.012281466263613898,"138":0.021080052090989124,"139":0.04916174024376089,"140":0.037339778911296036,"141":-0.010407693091819006,"142":-0.015548810063108152,"143":0.10111205738195075,"144":-0.09533388312561875,"145":0.008902462076509967,"146":0.12412013330980051,"147":-0.028172291093203978,"148":0.0191627761899741,"149":0.04154427225708297,"150":0.011236635057971518,"151":-0.018084506638567567,"152":0.027136783803028218,"153":0.05268158328613011,"154":-0.07066141389145793,"155":-0.02650393147218977,"156":-0.013643485750050645,"157":-0.027988332172818382,"158":-0.01075975984887065,"159":-0.14685470185458893,"160":0.033652649435961454,"161":-0.03409287850422584,"162":-0.015190547856093325,"163":0.026560337956928342,"164":-0.06361761292656554,"165":-0.0463940499802381,"166":0.020275415303950488,"167":-0.005401298752477788,"168":-0.06707233589577972,"169":-0.10561878764845974,"170":0.02889490634329956,"171":0.04487296732550511,"172":-0.05986064659824946,"173":-0.026959979882101588,"174":0.02282707233428763,"175":0.006334878228280676,"176":-0.06012187659119734,"177":0.0267610261261801,"178":0.06537600417771663,"179":-0.016946992529150565,"180":0.022705746312065768,"181":0.023279162115030665,"182":0.0713931306007491,"183":0.04598546808324336,"184":0.020090473376510935,"185":-0.023600519413618425,"186":0.03803871537242778,"187":-0.11153526284807772,"188":-0.030268603538873808,"189":0.040881064521786734,"190":0.08275559127071791,"191":-0.02342300462595664,"192":-0.052430463333550545,"193":0.012568246759151833,"194":-0.0030712736333748524,"195":-0.027450039773860093,"196":0.008723290104404821,"197":-0.02958368604158554,"198":0.06590320959360232,"199":0.021444108988557357,"200":-0.0415996907080379,"201":-0.08143056509187045,"202":-0.06225752975287097,"203":-0.02413469752445796,"204":-0.05507476396749238,"205":-0.014389028131193882,"206":-0.003242060747658537,"207":-0.12307265051297538,"208":-0.02734084876386473,"209":-0.03179758698239317,"210":0.07340438322107258,"211":-0.08138785052613774,"212":-0.03829486930345706,"213":0.012891913063358023,"214":0.04518193222871989,"215":-0.04425426453225827,"216":0.04708556151659613,"217":0.06531629350617275,"218":0.12142273524546456,"219":-0.012092317502159224,"220":-0.0718051914726474,"221":-0.051315142722748855,"222":0.06211174191082038,"223":0.016886305140325304,"224":0.06981205203704074,"225":0.060039006884922724,"226":-0.009800371273555347,"227":0.01175448219506384,"228":-0.05000332385339619,"229":-0.0015397167727174816,"230":-0.007662527488781965,"231":-0.023082138628089163,"232":-0.07278731138473361,"233":-0.07161219865258939,"234":0.0254229398665193,"235":-0.008871662584165765,"236":0.019168907121683013,"237":-0.0006826712522122726,"238":0.036040867767538086,"239":0.020420050583287722,"240":0.05506873771310302,"241":0.04342365704896661,"242":0.0024693153743310077,"243":0.023988687232539708,"244":-0.040973941664681185,"245":0.035055512372121476,"246":-0.04092519513449997,"247":0.024836040814449612,"248":0.0010553639609517,"249":-0.01908433473126068,"250":0.0730041266734431,"251":-0.04876895342797168,"252":0.08918078532535151,"253":-0.0918845577613179,"254":-0.009906155188718036,"255":-0.03898640850941994,"256":0.019766029984467776,"257":0.09828110972227383,"258":-0.03678559510643337,"259":-0.08888241730900844,"260":0.041106799547532234,"261":-0.06048759461864038,"262":0.06344006720690949,"263":-0.07684026386293777,"264":0.018981825237868028,"265":0.008259334507160019,"266":-0.01989144194903693,"267":0.10797702700697424,"268":0.03369792964403638,"269":0.051142305602347685,"270":0.057059506764984155,"271":0.0949973657669381,"272":0.03653940728688721,"273":0.0666758734493327,"274":-0.07576762242056112,"275":0.05452048414585483,"276":-0.1125001406526939,"277":-0.036688243501050946,"278":0.01411632235939292,"279":0.017683281119302046,"280":0.029369625082778295,"281":0.0035175569116362017,"282":0.011878824593570893,"283":-0.01740787736854579,"284":0.013197294006979611,"285":-0.06344748982384502,"286":0.05180736126535449,"287":-0.040823422498175006,"288":0.09355380112541704,"289":-0.03547216541103858,"290":0.008860967213636523,"291":0.04705346826585855,"292":0.009976961554380315,"293":-0.01426514533536606,"294":0.04454643923878471,"295":-0.006795958001592277,"296":0.039566923994647854,"297":0.10518358535338705,"298":0.045984497634947684,"299":0.025309110738811404,"300":0.006634865938038575,"301":-0.007970119164419882,"302":0.03693431533282687,"303":-0.01795937156734192,"304":0.09809725490269716,"305":0.021138189515733274,"306":0.10115834555436373,"307":-0.11777244246250944,"308":-0.04569300719598564,"309":-0.027718451948613537,"310":-0.02581849185420311,"311":-0.02401428489807791,"312":0.006908597020616072,"313":-0.06302140590297511,"314":0.019345134973359043,"315":0.09381766569150247,"316":0.0688837409698311,"317":-0.06978134496906133,"318":0.005750935167498036,"319":0.06711777865408708,"320":-0.07407545929314838,"321":-0.04646956820315024,"322":0.0581168332306095,"323":-0.06994021840049275,"324":-0.03132140675640282,"325":0.07440981405976184,"326":0.04819096099556011,"327":-0.01590916595499257,"328":-0.058630973235434175,"329":-0.040000245357298965,"330":0.1102823250644287,"331":-0.0478076410148182,"332":-0.03019989867288961,"333":-0.059219431434679726,"334":0.020982317977693024,"335":-0.09098879784805604,"336":0.014075689379936215,"337":-0.00495809848464879,"338":-0.03071522293308501,"339":0.037612483042754434,"340":0.019532693740320604,"341":-0.050124535125840065,"342":-0.07319611144327919,"343":0.013784854722244302,"344":-0.03193423633767776,"345":-0.12652955237954347,"346":0.07508540484645959,"347":-0.07159709077783906,"348":-0.007087840412051944,"349":-0.05883563100649585,"350":-0.053277902687381806,"351":-0.055384277622247506,"352":-0.11291805406873609,"353":0.07005037980197813,"354":-0.02935331575774567,"355":-0.0975417662035634,"356":0.06190882523161536,"357":0.08557901149816592,"358":-0.008849685647314623,"359":-0.01934170834165279,"360":-0.04799888864077519,"361":-0.004841997717287067,"362":0.024225377103911833,"363":0.0036773800384282125,"364":0.0301428762162173,"365":0.11737850983608243,"366":-0.020651476993502643,"367":0.025691488192354197,"368":0.0015440959536680615,"369":0.011550597856288583,"370":0.0730730510891871,"371":-0.048686078712752864,"372":0.07159275879987428,"373":0.05387458893733527,"374":-0.014574943852604499,"375":-0.019325778566447467,"376":-0.04482611347029844,"377":-0.012514854029720107,"378":0.024108922392517464,"379":0.015142887371399042}},{"sx":1,"sy":1,"depth":380,"w":{"0":0.07300427212736445,"1":-0.022356163426995528,"2":-0.015282066379700915,"3":0.04173920584288626,"4":-0.043725203901193416,"5":0.06214113143211095,"6":-0.009895139736211053,"7":0.1931047311603356,"8":-0.043430556451361624,"9":-0.07286737556083403,"10":0.05062399882420899,"11":-0.019623144401173995,"12":-0.0474347141820364,"13":0.0488051901622103,"14":0.04452286090358047,"15":0.07286689075426134,"16":0.14677442129303614,"17":0.07336563920441078,"18":-0.033012373246445625,"19":-0.030062293361974596,"20":-0.025028935169355823,"21":0.0007243540684508674,"22":0.062054483796678335,"23":-0.07849458948226859,"24":-0.10844821837545773,"25":0.05437735952983389,"26":0.005996291941388741,"27":-0.0780209137560678,"28":0.00427607224382773,"29":0.0003902374309634726,"30":-0.014647278785176708,"31":0.08156551210183528,"32":-0.013427914036430831,"33":0.022503883084367318,"34":-0.013954959273770377,"35":-0.025010710447064752,"36":0.06420710792075794,"37":0.01231023050768596,"38":0.06644924165592563,"39":0.06991850934208815,"40":-0.030619937698463853,"41":-0.011299897412191923,"42":0.12194420764240735,"43":-0.036742643899896364,"44":-0.026702864615669206,"45":-0.013210346399548963,"46":0.043998903897033356,"47":0.09366316752664708,"48":0.002972319120925898,"49":-0.030337520427399785,"50":-0.08655349900042798,"51":-0.023169682759183963,"52":-0.04244881091497905,"53":0.11663025518322893,"54":0.03625116376235403,"55":-0.09931366150512401,"56":0.06116398943715614,"57":-0.03169691079086799,"58":-0.0017799258498061245,"59":-0.012001111079988762,"60":0.06041648655931672,"61":0.06600268453895025,"62":0.008221597815607759,"63":0.04827626894499346,"64":0.07039831982976276,"65":-0.001595737537677599,"66":-0.018992169872315806,"67":0.019919826530799385,"68":0.040103529723146736,"69":-0.05087355644036705,"70":0.06955334901645302,"71":-0.059573765937788487,"72":-0.010876083043675927,"73":-0.04305594578201299,"74":0.03506288271409676,"75":-0.005297263010015145,"76":0.03675949667738466,"77":0.04077034001570986,"78":0.05482511458372907,"79":0.02973506827882461,"80":0.02727030201979462,"81":0.07491638880429538,"82":-0.008542150018409706,"83":-0.059449941012624505,"84":-0.0024364010415698022,"85":0.035446182455658726,"86":-0.012445952921679852,"87":0.04417032469217983,"88":-0.08013837212801332,"89":0.045526591705096604,"90":-0.05155756096021392,"91":0.0907745983430278,"92":0.11245529746980838,"93":0.04795326819490194,"94":-0.037135605047524736,"95":-0.022782474091322304,"96":-0.0023001315628292363,"97":-0.006827946194117615,"98":0.09901694846476138,"99":0.0001844646071476797,"100":0.08401564118231229,"101":0.04896694509542505,"102":-0.031118544354755782,"103":0.01735689041389792,"104":0.016371849243277965,"105":-0.12341321333966228,"106":-0.019213451616837067,"107":0.040986260563076034,"108":-0.011520139392749568,"109":-0.06432155788628639,"110":0.01835123479420706,"111":-0.02349318769623606,"112":-0.0547474600342421,"113":-0.06296168274109912,"114":-0.00805843031014721,"115":0.027513387458603062,"116":0.06917979989861851,"117":-0.0681903089079101,"118":0.04395350029900886,"119":-0.03629174286601066,"120":0.020200903580431515,"121":-0.014220585619002921,"122":0.1150231449149002,"123":-0.09332802092378087,"124":0.05485343831299117,"125":0.0475140211307113,"126":0.08939275430801466,"127":-0.04750581178144609,"128":-0.01841402769028013,"129":-0.01403125033245171,"130":0.0884637452745196,"131":-0.06354498079378253,"132":-0.002258084123083525,"133":0.025597165642111164,"134":0.06935182107549759,"135":0.008029811226634903,"136":0.04916233932587117,"137":-0.06257456783437809,"138":0.0453240254926923,"139":0.049174767799865446,"140":-0.08848710076710617,"141":0.09291982829594081,"142":-0.04564950985826955,"143":0.025392880304176055,"144":0.056059348319102545,"145":-0.01054702252888621,"146":0.016654511840339004,"147":-0.09339091608577504,"148":0.01752536507835283,"149":-0.030827403941615966,"150":-0.05496556439463002,"151":0.039130159621833506,"152":0.11692720569710262,"153":0.06452815687162812,"154":0.006784015999273909,"155":0.027064318706421717,"156":-0.03019745879773447,"157":-0.0031106442711070804,"158":-0.0280512363978964,"159":0.027452774745628617,"160":0.1198069410917336,"161":-0.0351879337436378,"162":0.020064137879976972,"163":0.01819300015025673,"164":-0.05029656636985201,"165":0.022113012268119722,"166":-0.08160624583683182,"167":-0.04896840199977578,"168":-0.030265282461248825,"169":0.00968462212754295,"170":-0.11446526692875826,"171":-0.0045176704724316065,"172":-0.02802882149397713,"173":-0.08541391046891919,"174":-0.12179214484640165,"175":0.029848198094805184,"176":-0.0013151589887122675,"177":-0.04421254169596788,"178":-0.04674644198850793,"179":0.05866718035220079,"180":-0.022652185895919615,"181":-0.04172643545092345,"182":-0.007230394414849531,"183":-0.09758764181889042,"184":-0.023880408369127495,"185":0.005825294972628427,"186":0.005094459745180268,"187":-0.0033152058597684495,"188":-0.02305310651065378,"189":0.03657833500735442,"190":0.11160078734008068,"191":0.013635899393579797,"192":0.07823849630502541,"193":0.04535607998503687,"194":0.009808138364072908,"195":-0.04786169758478545,"196":0.03791146953537254,"197":-0.0117692439066192,"198":-0.053574144967182116,"199":-0.05435168875666167,"200":-0.01351860837262392,"201":0.13068509925366226,"202":-0.003915670356051976,"203":0.0006206700498891562,"204":0.0471916543365112,"205":0.032792859134382485,"206":0.05324826992388084,"207":0.05248475313577131,"208":0.019117774831840212,"209":-0.0693919353217651,"210":-0.04501098865402003,"211":-0.030563238170673263,"212":-0.06348061070485805,"213":-0.018198325341471592,"214":-0.008925681287758627,"215":0.030172814579513863,"216":0.1259201841771423,"217":0.05829822034535454,"218":0.06718015727532763,"219":-0.06350609261585151,"220":0.04587208666915589,"221":0.03506508154269483,"222":-0.07365642438801845,"223":-0.05457336075371616,"224":-0.017276519601701425,"225":-0.0472710413550462,"226":0.02615410690040767,"227":0.031939783246756455,"228":-0.05517632846689147,"229":0.04081326076199388,"230":-0.004257680971197828,"231":0.026072643360742703,"232":0.06492007850108365,"233":0.034775760508167844,"234":0.03400634224930902,"235":-0.03912192596145833,"236":-0.11591295746936253,"237":-0.035507131452223575,"238":0.029030288393780888,"239":-0.03380211943098775,"240":0.052811754017779794,"241":-0.051620677460110696,"242":0.1019709327684059,"243":0.09201708650734572,"244":0.050524289644601456,"245":0.069285799916063,"246":0.034761395354667504,"247":-0.06598419204792297,"248":0.021663516985886196,"249":-0.06058429306747535,"250":0.020315440241577644,"251":-0.008300184456443186,"252":-0.05190936744784714,"253":0.030517116537594795,"254":0.07503996318291695,"255":-0.047869512117704044,"256":-0.01754585370757306,"257":-0.020599528214331808,"258":-0.033402434806031146,"259":0.02653690246637264,"260":0.041978510453119955,"261":0.04799006691926274,"262":0.025403448299856,"263":-0.041032057058755476,"264":-0.02117218564886884,"265":0.01060757335206426,"266":-0.03392907719308872,"267":-0.07000463668287962,"268":0.052359759377901466,"269":-0.03403466241179274,"270":-0.02374248829762828,"271":0.015084863112595968,"272":-0.05496027374715075,"273":0.03648334510503773,"274":0.077177653184171,"275":-0.05079459434209058,"276":0.020344207803602864,"277":-0.028373729506573186,"278":0.010685926142878782,"279":0.06623829869488315,"280":0.013037125011551416,"281":-0.053640534661690165,"282":-0.0008302634608714965,"283":-0.08819961846910458,"284":0.049585749374675955,"285":0.04215774992261285,"286":-0.04889885867248489,"287":0.058974921693063474,"288":-0.006803379424639341,"289":0.020716650905271746,"290":0.03978413963025307,"291":-0.035787700583897575,"292":-0.02293382473953569,"293":-0.004434019400877498,"294":0.07152456308913822,"295":0.018962747686692153,"296":-0.013118857802199648,"297":-0.04235927256350907,"298":-0.07151854650256899,"299":0.007625026881131504,"300":-0.0023273938356035465,"301":-0.054941431034858816,"302":0.014209663572214608,"303":0.03679098473207157,"304":0.0784423962550403,"305":-0.002398674448602878,"306":-0.03000587778991657,"307":-0.048991619829510995,"308":0.09343525395302305,"309":-0.03597147753483714,"310":0.09351777144193486,"311":-0.026794318546653678,"312":0.0238327064664741,"313":-0.054879560653475955,"314":0.008903878698066475,"315":-0.013376534552626095,"316":-0.027746217695993516,"317":0.030581282489548955,"318":-0.008205622470312661,"319":-0.04409055991504883,"320":0.03528410583542391,"321":0.03852481558959485,"322":0.05747769076805421,"323":0.00852748471469684,"324":0.01879847753227295,"325":-0.06155202506466897,"326":0.023866773510327587,"327":0.02739677160175387,"328":0.0006521676768686761,"329":0.0523812581267037,"330":-0.06432618150018916,"331":0.006762049391128036,"332":-0.009166298193008108,"333":-0.0023582213595763494,"334":0.0037952138815132356,"335":0.044522029980588004,"336":0.05867395826453679,"337":0.01969041330471169,"338":0.03619176330418153,"339":-0.07048007820084455,"340":-0.047445133297753156,"341":0.08027758428105866,"342":0.0535687473194041,"343":0.0004559972997280887,"344":-0.15609969351659034,"345":0.0127895013475478,"346":0.06906066765211955,"347":-0.010239578182734578,"348":0.011767154366306789,"349":-0.010603852589209003,"350":-0.0031390899896000914,"351":0.04212534259917386,"352":0.0034949870949320767,"353":-0.07111769899449802,"354":-0.037584949007846355,"355":-0.09960505536123865,"356":-0.060173022739143815,"357":0.0676398002402796,"358":-0.028601317457182033,"359":-0.048583214109516215,"360":-0.0004986303159406996,"361":0.0749535603470228,"362":-0.03535391667895139,"363":0.0023533509748255767,"364":-0.0026640302551183366,"365":-0.04438302139404015,"366":0.02960623871453458,"367":0.02621249324025132,"368":0.022622610205530004,"369":-0.006097008564094161,"370":0.050085125207659426,"371":0.025874617446849924,"372":-0.027774025521710773,"373":-0.0006224985311632333,"374":0.07347265869301924,"375":0.0037813158160980337,"376":-0.0404432730616664,"377":0.011041138642188603,"378":0.021348451490776493,"379":0.006197212756153654}},{"sx":1,"sy":1,"depth":380,"w":{"0":0.026424104766266977,"1":0.029601650762719783,"2":0.01368324900734199,"3":0.051918966953747106,"4":0.0546522483982147,"5":-0.04479972754693721,"6":0.09045157740266634,"7":-0.0990757988654418,"8":0.05838488395276349,"9":-0.06608080234468973,"10":0.069023770801633,"11":0.049668609084303914,"12":0.03743965310086499,"13":-0.0416759509597983,"14":-0.015129765774746668,"15":0.07269755784736251,"16":-0.1147719906564953,"17":0.058012471368209154,"18":0.011839047737092108,"19":0.04589306488884588,"20":-0.07090111536151779,"21":0.03176786424240547,"22":-0.054408675610105144,"23":-0.08142571123272489,"24":0.006340597164537668,"25":0.05368624180601124,"26":-0.06747375730525114,"27":0.023801503875603088,"28":-0.048132991520717934,"29":0.015862769259851695,"30":0.04370046862336879,"31":0.0059535688699321465,"32":0.030266088530222005,"33":0.10540456399757814,"34":-0.002503398020944235,"35":-0.02184261395422087,"36":0.07891812304488044,"37":0.09273984153703124,"38":0.00791409209392575,"39":-0.07866638667339765,"40":0.017076208410819995,"41":0.056911044308996565,"42":0.05416817311966747,"43":0.05005282618412657,"44":-0.049383053382458866,"45":-0.007291517451629558,"46":-0.03064093460648507,"47":0.032648589899518535,"48":-0.015606406466525594,"49":0.09328934332137444,"50":0.008535590894367987,"51":0.032540090054074926,"52":-0.006312693798933509,"53":0.03336990001010645,"54":0.04734566348449838,"55":0.06522244731433972,"56":-0.04230250330081009,"57":0.010238014230869208,"58":0.039847533259637004,"59":0.03650728119477791,"60":0.005330927332912918,"61":0.018020886457770537,"62":0.005049681604388404,"63":0.04454149343036712,"64":-0.059339358503651886,"65":-0.030864211580865414,"66":0.014453460832428853,"67":0.0158308395660864,"68":0.07188674333122475,"69":0.11362894275206252,"70":-0.050912108466787516,"71":0.026426098654457632,"72":0.06504978377917243,"73":-0.03061866450264375,"74":-0.039501552937923054,"75":0.021004135576093538,"76":0.011932927747813762,"77":-0.018759914536415453,"78":0.06639939001402553,"79":-0.010322816707319351,"80":-0.0074289673450940496,"81":-0.08380973544052851,"82":0.05621690773207523,"83":-0.01943793107479834,"84":-0.05765286943077609,"85":-0.005515523222836801,"86":-0.005530964815257773,"87":0.035660808983690916,"88":-0.036797486262265776,"89":0.0071739809532900345,"90":-0.015251314810002355,"91":0.11939174148577454,"92":0.019369139443640954,"93":0.04323826118946304,"94":0.044206586574187114,"95":0.02970446034987693,"96":0.08349975093713255,"97":-0.035144102891061076,"98":0.0018007294273006747,"99":-0.04704269231852689,"100":-0.012009153561924682,"101":0.010872356333438391,"102":-0.034895774014528806,"103":-0.022417785656315803,"104":0.0446158968191892,"105":-0.07613682017385336,"106":0.059715759978868806,"107":0.01586818394061875,"108":0.05472519604045289,"109":0.05915913630508648,"110":0.07949133423139366,"111":-0.09233031510164581,"112":0.092735328373637,"113":-0.08586076398111178,"114":0.0388902730488528,"115":-0.10793422472963461,"116":0.04666783838154898,"117":-0.0009331035899477317,"118":0.004231615635640907,"119":0.027806359274625252,"120":0.054014036733032685,"121":-0.040860784300015905,"122":-0.05211416831872999,"123":0.01310779844915112,"124":0.0012365174228265092,"125":0.08790850347783938,"126":-0.023621979620163255,"127":0.0034792428669405207,"128":-0.03170093262963593,"129":-0.0371454775111868,"130":0.06469562604243953,"131":0.045785189378642836,"132":-0.052676119224046344,"133":0.04698373145486003,"134":-0.15922892978385464,"135":-0.061583177132368196,"136":0.006864858374318536,"137":-0.06559359331022424,"138":0.09984200863622142,"139":0.05301165898005656,"140":0.10721847740362701,"141":-0.018815323018420746,"142":0.005747169406510751,"143":0.045639359710266385,"144":-0.024432247697972902,"145":-0.03984803388169156,"146":0.05297380228384333,"147":-0.066411412495422,"148":-0.04836335279180296,"149":0.08564476253884533,"150":-0.02390698433985991,"151":-0.05486858653363394,"152":0.10756478585644098,"153":-0.020521378377507275,"154":-0.00022802420498579294,"155":-0.056284446812799954,"156":-0.06163809031963665,"157":0.0164454281045829,"158":0.06844314605293386,"159":0.06984905243166732,"160":0.07272181876569155,"161":-0.05858128609446278,"162":0.11073759305499131,"163":-0.029385257868764388,"164":0.019049907046782773,"165":-0.07276501898099229,"166":0.03390442057069272,"167":-0.02897866919906937,"168":-0.06718199748898084,"169":-0.0866724396305045,"170":0.022356212365665106,"171":-0.011184333252961344,"172":-0.02079445993110734,"173":-0.09765557316968165,"174":-0.02936463281800804,"175":-0.06268179377399868,"176":-0.13133287393073123,"177":-0.05405128318127588,"178":0.07870588264257157,"179":-0.05900392627200248,"180":0.0129406227407535,"181":-0.04212415637296698,"182":0.03374675744865818,"183":-0.02607911740758176,"184":0.055416637133976564,"185":0.07587649466285151,"186":-0.08025423593346272,"187":0.03214319765990298,"188":0.02330422167845531,"189":-0.016427257687058636,"190":0.06251204610252778,"191":-0.030337890551945777,"192":0.015097059644238454,"193":-0.0581578871534766,"194":-0.0033775821635944935,"195":-0.02163499653184107,"196":0.009334094864734046,"197":-0.025443424622146292,"198":0.034807066893871585,"199":0.011675385545226874,"200":-0.003313621319736948,"201":-0.011060004157483757,"202":0.011126886721916134,"203":-0.04213003787635886,"204":0.026538077340086914,"205":0.052315494599017465,"206":0.03448529690234749,"207":0.03446900388632625,"208":0.010109769468510757,"209":0.001320498743019019,"210":-0.09061106065945851,"211":-0.08738655109038446,"212":0.01256966323282387,"213":-0.10253135634460744,"214":-0.059256709000520755,"215":0.049947110629044104,"216":0.13188522095705613,"217":-0.013287037018604328,"218":0.002770323741134654,"219":-0.01622931018863158,"220":-0.009605054152694638,"221":-0.04794396351381001,"222":-0.02466975314259698,"223":-0.03543912898391015,"224":0.011550356654187865,"225":-0.03845793943858047,"226":0.0006465005494887615,"227":0.05574718658983827,"228":-0.015891532735360633,"229":-0.07429690515518274,"230":-0.10545863096950148,"231":0.11565106654512831,"232":-0.05757182762428177,"233":0.01605021326715435,"234":0.0004411549355498755,"235":0.016811860453961665,"236":-0.09294048458452343,"237":0.004639735102615557,"238":0.0939924062971346,"239":-0.041864614834202236,"240":-0.02724230304170859,"241":0.0015189751650314923,"242":-0.06515427462794315,"243":-0.06488712085683507,"244":0.09512673357634115,"245":0.0495366659282304,"246":0.040363464544810705,"247":-0.04828541845236278,"248":-0.02658647667092234,"249":-0.06772093403180625,"250":0.07821484145912351,"251":0.03788651821200455,"252":-0.012571712541092246,"253":-0.040092039642235476,"254":0.037551842783617485,"255":0.00008678600118648962,"256":0.13842075253783806,"257":0.03397798383373817,"258":-0.03652803051599965,"259":0.060833854394475306,"260":-0.06905376820954623,"261":0.10651843383852778,"262":-0.047113432511338565,"263":-0.05782223097729893,"264":0.07851138916740912,"265":0.04737893101601596,"266":-0.020808475239753932,"267":0.11069854258755611,"268":-0.0047384105764195885,"269":-0.020303941618951316,"270":0.02087813037441036,"271":0.003369341034208044,"272":0.07342547186856123,"273":0.09895081978075446,"274":0.022638107554181223,"275":-0.03455050096808486,"276":-0.03373825860185354,"277":0.07862772707075455,"278":-0.00760217391127119,"279":0.18923962947153686,"280":0.017507520925357095,"281":0.02303051127877193,"282":0.03756215531510755,"283":0.11553208360397041,"284":0.03324119633610519,"285":0.009040408367570245,"286":-0.08436816529627753,"287":0.02931515089019543,"288":-0.03465700027307734,"289":0.0024725638266025174,"290":-0.01914723203829379,"291":-0.06718713016416968,"292":0.12071211162587281,"293":-0.05270690209786197,"294":0.03550713942686042,"295":0.018458157078728228,"296":-0.026367769779961494,"297":-0.0733948551786862,"298":0.1031793997609359,"299":0.1411134118681927,"300":0.0377778252376458,"301":0.00026085169277230316,"302":-0.055881019161473824,"303":0.023275362408944695,"304":0.0632937414295908,"305":0.003717116547389732,"306":0.0006473778617802623,"307":0.05080595506631752,"308":-0.04331812308317265,"309":-0.004080395978291121,"310":-0.038498528059682076,"311":0.006686179957828172,"312":-0.0879377153487428,"313":-0.0783867120346821,"314":-0.029323270265422387,"315":-0.049747138100572005,"316":-0.08903867874330774,"317":-0.02325158260482868,"318":0.07235157340726028,"319":0.109829886325912,"320":0.03388884893600882,"321":0.017615420447199947,"322":0.07367561448501123,"323":-0.013600231259925188,"324":-0.005227264241406613,"325":-0.07635455076591485,"326":-0.02153380931007219,"327":-0.025090265793778307,"328":-0.05397607808798836,"329":0.03556885837239351,"330":0.045222042231194935,"331":-0.03435312766220812,"332":-0.05209726209198738,"333":0.0814418516360058,"334":0.11584760423924163,"335":0.06658268976522692,"336":-0.015225697242617343,"337":0.021202466600166434,"338":0.04823655473587445,"339":-0.020668922885782724,"340":0.0027784503840552707,"341":0.07275541682673815,"342":-0.05049893323237225,"343":-0.014387343087544786,"344":0.07756304887595107,"345":-0.03566871637786664,"346":-0.08833569292911814,"347":0.04902082764984476,"348":-0.03342292026314533,"349":-0.022525077473360036,"350":0.036036886353742345,"351":0.005306041427250874,"352":-0.012708813127210785,"353":-0.009089419808268565,"354":-0.008135781619878619,"355":0.02545487800621796,"356":-0.00432159293360955,"357":0.037534114447956346,"358":0.07329461121633339,"359":-0.05742316147523138,"360":0.03204343662503547,"361":0.022065276360421833,"362":0.07960683739255325,"363":-0.08539738269571659,"364":-0.03255594240776909,"365":0.0017292431542359475,"366":-0.04131880518724511,"367":-0.06159457955340998,"368":0.03227241729208273,"369":-0.0029830894371160126,"370":-0.062151575095032066,"371":0.05861284631155271,"372":0.030209534727070213,"373":0.135779945726475,"374":-0.02308387326919768,"375":0.018860625087835998,"376":0.04935541735660079,"377":0.009846655372933357,"378":-0.0208468170705367,"379":-0.1387129050241444}},{"sx":1,"sy":1,"depth":380,"w":{"0":0.047058723275392365,"1":-0.04185540157724859,"2":-0.0175130200512586,"3":-0.04853238519592086,"4":0.022856384036694478,"5":0.010876939429798203,"6":-0.09496179371029898,"7":-0.06808728584784511,"8":-0.0022496795068895873,"9":0.0504837144063549,"10":-0.017471827502973228,"11":-0.01974687787655511,"12":-0.029860640412968518,"13":0.006078549283271339,"14":0.07112451930285138,"15":0.08508990499613026,"16":-0.01948802033658424,"17":0.014763846527542614,"18":-0.06344038601722587,"19":-0.03547497895449618,"20":-0.05948981593994116,"21":-0.06865810820437422,"22":-0.006894437533972043,"23":-0.002108180254961504,"24":-0.03975217161389478,"25":-0.03252503089720556,"26":-0.02793876497009168,"27":-0.030904738957525157,"28":0.051246994413458306,"29":0.014399552245435841,"30":-0.004285208978691817,"31":-0.017031951750281337,"32":0.041543936991656635,"33":0.015578054512950025,"34":-0.11109016749874769,"35":-0.013426193552127168,"36":-0.018735440351760238,"37":0.06263254128428455,"38":0.004249639452396491,"39":0.051182782269698954,"40":0.00143836151731651,"41":0.05407678945715526,"42":0.012947276084460316,"43":-0.026319445172379167,"44":-0.001835395113757452,"45":-0.03655961309622001,"46":0.03526074672174665,"47":0.026558315432930395,"48":-0.10675189391787716,"49":-0.01049761989177665,"50":0.015027076868876426,"51":0.03477763352803336,"52":0.0368793486706178,"53":0.006997200398133927,"54":0.01890130815738877,"55":0.04808059812353856,"56":-0.039692405687489864,"57":0.05164686449519813,"58":0.006858271470463337,"59":0.14418571596218804,"60":-0.034428717670791045,"61":-0.059387375843443696,"62":-0.03519885493096881,"63":-0.0437417832876103,"64":0.07688858086791989,"65":0.03913518090472767,"66":-0.014859343161893466,"67":0.024371240855770682,"68":0.0017574830448227352,"69":-0.01824390936836567,"70":0.0011798752228747477,"71":0.07720391396825012,"72":-0.00031273486145909384,"73":-0.04626708934189112,"74":-0.08031826121623076,"75":0.0331947246378916,"76":0.011569423183106456,"77":-0.022652059926195987,"78":-0.003759605851110289,"79":0.05239474466832015,"80":0.024574689594961292,"81":0.025970696168746473,"82":-0.033454409206105984,"83":0.06408784697284094,"84":0.031806325278281,"85":-0.0019220264511820336,"86":-0.0529242220189454,"87":0.11286210970823533,"88":-0.0739415319714233,"89":0.047889681792661835,"90":-0.11593489765021577,"91":-0.06186830008551582,"92":0.0670926102510078,"93":0.014925338482440714,"94":0.07270710875203386,"95":-0.05075697983447926,"96":-0.06261498477410023,"97":0.03178348612552513,"98":-0.02433568745258549,"99":0.00863859109418384,"100":0.02367998937573259,"101":-0.02016339596005077,"102":-0.054794540638613706,"103":-0.04951888912215189,"104":0.0122166523698135,"105":-0.02886684936157618,"106":0.058342592363019245,"107":-0.1220563585090918,"108":0.01841981392404445,"109":0.02951130983129276,"110":-0.02460490133317116,"111":-0.023347786156024168,"112":-0.0053924028870916555,"113":0.033486321564548636,"114":-0.06324799881032012,"115":0.09288206298918096,"116":-0.042686578185883006,"117":0.07304542007416182,"118":0.007123084439938066,"119":0.040155080544098616,"120":0.08183519446583032,"121":-0.06530336656942179,"122":0.025550610400544013,"123":-0.028609682567252062,"124":0.06567757519600269,"125":-0.07495550652862573,"126":0.05465709490700615,"127":-0.02361994280329502,"128":-0.0340254363338362,"129":-0.006958504852474735,"130":-0.05516847096802866,"131":0.07080056619752859,"132":-0.014870107030347112,"133":0.017201335995446928,"134":-0.05433279754762234,"135":-0.014208354865861904,"136":0.08184581951520276,"137":0.06932709243947612,"138":0.002853274740295192,"139":-0.026066693532675215,"140":0.008398582753110445,"141":-0.042680784197564506,"142":-0.03572585220377116,"143":0.04823845547193923,"144":0.02654969708161841,"145":-0.0033296531433011888,"146":0.08104311089656427,"147":0.042951817972628495,"148":-0.06988095676138582,"149":0.013738454524839308,"150":-0.10117631096893408,"151":-0.04219645981485123,"152":0.059174301077290575,"153":0.011153127938061894,"154":0.005820595763491783,"155":-0.06066312994185086,"156":-0.06049320080299698,"157":0.01861529950203878,"158":0.04005726681089927,"159":-0.035030850855655916,"160":-0.1058221714763416,"161":0.05294837511916047,"162":0.08617948595654984,"163":0.07287151708330476,"164":-0.01057165162252266,"165":-0.0023138825878005168,"166":-0.022852127857550447,"167":-0.0023913204829003457,"168":0.03478306886322688,"169":-0.0020839661624037983,"170":0.021181699233394247,"171":-0.08757530883802729,"172":-0.013121528551183667,"173":-0.03750305567782466,"174":0.05973840428762097,"175":-0.043257064344646295,"176":-0.0041102187315611525,"177":-0.01191494542143076,"178":-0.04467118789685457,"179":0.032343626919432183,"180":0.035356141181809644,"181":0.0073985264570120834,"182":0.034857292788027204,"183":0.010696066724509007,"184":0.04272210519750508,"185":0.049332656961695136,"186":-0.0787616029763715,"187":-0.0502336781770277,"188":0.06297000086181874,"189":0.011507081937071131,"190":0.02426793256521934,"191":0.024683481816011932,"192":-0.020892018005694634,"193":-0.06211111365058568,"194":0.021577683352188896,"195":0.06011297161543817,"196":-0.004734785523172059,"197":0.08719530796765446,"198":0.0881591076979626,"199":0.044936647093028956,"200":0.0030633633128278096,"201":-0.043984165458894754,"202":0.1259634954765512,"203":-0.06408769953541532,"204":-0.06903251991279048,"205":-0.0905579471813213,"206":-0.008459114367451604,"207":0.057668593892226824,"208":0.05723477662544321,"209":0.014918756382915514,"210":-0.018947853065892223,"211":-0.01057740838149098,"212":-0.0168484581684385,"213":-0.0049549364091439905,"214":-0.04984331129932855,"215":-0.008309960778568317,"216":0.04563154304011758,"217":0.0037346865881718056,"218":0.021961430711596862,"219":0.0013741604891400444,"220":0.05345363284039402,"221":-0.0758535285427151,"222":-0.010243171159692388,"223":0.07018946897010622,"224":-0.06232348270818077,"225":0.09482060502528603,"226":0.014314755854532813,"227":-0.08393774390478374,"228":-0.023965540043448915,"229":0.009856373247566481,"230":-0.018979811652553195,"231":0.00552581011732447,"232":-0.09695654293927627,"233":-0.031001993989325006,"234":-0.017044148124906622,"235":-0.04437088762191955,"236":-0.009410273626184351,"237":-0.08242587282501586,"238":0.038613731967002816,"239":0.07475615462169954,"240":0.023413302514332313,"241":0.05084552765775669,"242":0.023280842909874734,"243":-0.034283449011900835,"244":-0.08312766294187006,"245":-0.0513202570663405,"246":0.026228889433655273,"247":-0.06085860243071137,"248":0.03238030812756346,"249":0.020376141277346937,"250":0.12819499830657682,"251":-0.0007793216418232648,"252":-0.08761192693629928,"253":0.02934103888243813,"254":0.016787637884418533,"255":-0.023931809865679797,"256":0.026870729746150835,"257":-0.029010493113948,"258":-0.0511647897573054,"259":0.07621954579380441,"260":0.049670979923893396,"261":0.013430848256129682,"262":0.09012656384305737,"263":0.0014732548763912387,"264":-0.01690989793403133,"265":-0.05337907131376723,"266":0.038550474727902566,"267":-0.00792411342573604,"268":0.03332597110088,"269":-0.04540105049859036,"270":0.004353753194956878,"271":0.015366530685314583,"272":0.00820348823123276,"273":-0.04519827303063931,"274":-0.032259874742441345,"275":0.036624294414322314,"276":-0.02407771077887104,"277":-0.0003653350741390073,"278":-0.08755245434518805,"279":0.04864884544357332,"280":-0.018906742941867786,"281":-0.05268370800734653,"282":0.13378060808324652,"283":-0.02874688414444641,"284":0.015586787045762185,"285":-0.018406883422630745,"286":0.008957681231802213,"287":0.09096739054695203,"288":-0.03141150206942823,"289":0.02508351597431522,"290":0.0036164175756728846,"291":0.04249419312720233,"292":-0.02924552074464506,"293":0.05770570438323188,"294":-0.15007822782428457,"295":-0.05614702112219236,"296":-0.04619726456434297,"297":-0.010638126217920513,"298":-0.007378890893872762,"299":-0.026711998734004847,"300":-0.06103132273641507,"301":-0.04844245851885619,"302":0.019697234852676375,"303":-0.002471319155984173,"304":0.015208070413995068,"305":0.09937017070592462,"306":-0.047906109581547986,"307":0.02958160348049121,"308":-0.03619614814813911,"309":-0.10114422453035285,"310":-0.10438820453689222,"311":0.061552300948294926,"312":-0.04122514301566291,"313":0.047058151196336336,"314":0.09781100749369812,"315":0.06884005516920999,"316":0.06273402178126887,"317":-0.00021276433493008686,"318":-0.016618921772819668,"319":0.02192604442252378,"320":-0.07364290402338315,"321":-0.05869093223392936,"322":-0.04647072198305272,"323":-0.07755588547902566,"324":-0.07920004893623428,"325":-0.020013210228145197,"326":-0.05533466033572261,"327":-0.05905205748834072,"328":-0.07212561874810834,"329":-0.1037191534312017,"330":0.020755003507895244,"331":-0.028923218545667005,"332":-0.028230454947752736,"333":0.07947582259819616,"334":-0.015106104002069754,"335":-0.015910404794772907,"336":-0.11657250880027702,"337":0.06493215084685644,"338":-0.004290927006842397,"339":0.036825646134095384,"340":0.04912982601795525,"341":-0.02884287596690487,"342":-0.05714797974927334,"343":0.004629744246149326,"344":0.006602194943789576,"345":-0.018395454087186864,"346":0.00662473615466729,"347":0.03535681978491132,"348":-0.06961725862538976,"349":-0.0765700733496574,"350":0.06734275147434096,"351":-0.061083569898987056,"352":-0.15515025986917313,"353":-0.008815839985884397,"354":-0.09721363284657042,"355":-0.04144828217361832,"356":0.06688060374280481,"357":-0.008309787283795113,"358":0.02563433594773421,"359":0.0058907307386740805,"360":-0.05565241118910485,"361":0.05756290235484325,"362":-0.08575084693323029,"363":0.04681351787437066,"364":-0.12889350423984489,"365":-0.056087530121564026,"366":0.10444039159945757,"367":0.04966588053081225,"368":0.014968243643747816,"369":-0.02778708384188437,"370":0.03375519260305678,"371":-0.05330120408252099,"372":-0.0638634037101558,"373":0.026855871670649,"374":-0.0541576178842957,"375":0.07052656802948655,"376":0.05633787879261702,"377":0.036809377437849476,"378":-0.03722203917910308,"379":0.016747355297004468}},{"sx":1,"sy":1,"depth":380,"w":{"0":0.01516086346202992,"1":0.0019344043801785135,"2":-0.024943424371228366,"3":0.15674345171847334,"4":-0.007159423526938995,"5":-0.027967052933818543,"6":-0.039846715321912106,"7":0.07466658685283102,"8":0.06662763638209884,"9":-0.0972411648243619,"10":0.07834753253917383,"11":-0.048957565494985644,"12":-0.019308882176462674,"13":-0.014139348876016264,"14":0.04064763379833062,"15":-0.057951617715915345,"16":-0.08391431137512625,"17":0.094551330295364,"18":0.05757246797161931,"19":0.026165682785977577,"20":0.015938482974879865,"21":0.05379361023798144,"22":0.06476624943388913,"23":0.05724507466890132,"24":-0.04684161844202662,"25":0.06717994592437206,"26":0.05622479637612036,"27":-0.014749787480107194,"28":-0.06835492581647225,"29":-0.03183873935696181,"30":-0.08909364940442459,"31":0.030929179792628506,"32":0.0229456584867105,"33":-0.04754297114296688,"34":-0.06761822515071533,"35":0.07830450956645761,"36":-0.029616837169932117,"37":0.016394153393723136,"38":0.055164231239855144,"39":0.03003300165173542,"40":0.10254458651589159,"41":0.08019174355577013,"42":-0.09127973625169676,"43":-0.04005170177466295,"44":-0.06125181284117994,"45":0.0030895517294605383,"46":-0.0839474809977224,"47":-0.014467332245199329,"48":0.031044520702119206,"49":-0.05277220768410075,"50":-0.10746593720474183,"51":0.06856807216539916,"52":0.015131634360401285,"53":0.029742143035085794,"54":0.07835814428234497,"55":0.06401221347590272,"56":0.07724258724376748,"57":0.004652149439678888,"58":0.006368700865623536,"59":-0.017650043330533948,"60":0.01738777150849129,"61":0.06811925549209176,"62":-0.05656817002349475,"63":0.05717774071005525,"64":0.12357259092185098,"65":-0.0070561380965514986,"66":-0.007486365816083619,"67":0.008436479213853734,"68":0.01133441476723541,"69":-0.10737170622931343,"70":-0.019780913785365947,"71":-0.043654906451711314,"72":0.039544371384713325,"73":-0.040588092339510336,"74":0.07866401396150478,"75":0.0016064796710766852,"76":0.0322572387703824,"77":0.0019020689285093196,"78":-0.0833003101122563,"79":0.004303077405161324,"80":-0.015583694085105801,"81":-0.013989685259093533,"82":0.010999844506813943,"83":0.051807441605857485,"84":0.007476062855942657,"85":-0.033108200454531556,"86":-0.09672689136371518,"87":-0.04025102766897588,"88":0.006865411606677573,"89":-0.041063928324363834,"90":0.06823414598154214,"91":0.04835883317258561,"92":0.05192878550091577,"93":0.07895295171547956,"94":0.015563698083577581,"95":-0.04532838444552723,"96":0.007455666466997307,"97":-0.04650586568355853,"98":-0.021659207181910858,"99":-0.027244046942649827,"100":-0.04913873508015639,"101":-0.03965531663489474,"102":-0.008150604200520327,"103":-0.03375738286648725,"104":-0.08194999956681663,"105":-0.08205972964851883,"106":-0.06390677088654276,"107":-0.08101147123289107,"108":-0.005957091435934015,"109":-0.02208635229129191,"110":0.01971795694564803,"111":0.09922098246748016,"112":0.014385245219671912,"113":0.024058463920569303,"114":-0.019559855877142623,"115":-0.010298870091501348,"116":0.010530679836568661,"117":-0.01811298873811096,"118":-0.14810625856372658,"119":0.12254438382044273,"120":-0.00702740152923201,"121":-0.012190549816902995,"122":0.005777692261014442,"123":0.03684761509833754,"124":-0.03471948560961115,"125":-0.009536503200369952,"126":-0.016011180576575617,"127":-0.039635722824177405,"128":0.05863806164526432,"129":-0.045534085910127586,"130":-0.11068813369530212,"131":-0.004218797241709834,"132":-0.027578373661090592,"133":0.025911522715340078,"134":0.007918227784893001,"135":-0.05000881126716537,"136":-0.008783024187360487,"137":0.06604938070621943,"138":-0.029817916835451014,"139":0.008506939268355804,"140":-0.04439113690587858,"141":0.015080853532938187,"142":-0.054789847427112175,"143":-0.01310308082256874,"144":0.02543615116881665,"145":-0.03796521002779472,"146":0.1383663836166457,"147":-0.05361162668302127,"148":-0.03618502598461074,"149":-0.010069049999312178,"150":-0.053746347711978615,"151":-0.04065843781878524,"152":-0.001217424079681256,"153":-0.09745893625073018,"154":0.05505637708176511,"155":-0.059788989035969894,"156":-0.031700410720840115,"157":0.0122286129828539,"158":-0.028863049179331503,"159":-0.036875619255196494,"160":-0.045801353337015654,"161":-0.08584672084693692,"162":0.0522815703516881,"163":0.030978875458287147,"164":-0.06285172592646457,"165":-0.020048175166384987,"166":-0.06434714485755867,"167":-0.03552930642418349,"168":0.0016444863679717255,"169":-0.06523961235748034,"170":-0.004557499187790206,"171":0.005649560560232669,"172":0.004980877886450691,"173":0.0495680868464312,"174":0.07371084486745831,"175":0.05581031759925089,"176":-0.04847452843722319,"177":-0.09445176099032243,"178":0.08707988696412816,"179":0.010979710953727712,"180":0.04616719916816248,"181":-0.010926433287217296,"182":-0.012705854587041234,"183":0.0548538187082222,"184":0.033893826937391444,"185":-0.09678739932655565,"186":-0.06628298376810782,"187":0.027212097113488966,"188":0.09660382305424124,"189":-0.0410471487327764,"190":-0.11733343560694562,"191":0.0701789669757563,"192":0.04595158475934418,"193":-0.021339806177159033,"194":0.09755790449456148,"195":0.05951672311374193,"196":0.13778027404147428,"197":0.01769621713257221,"198":0.05323094473436291,"199":0.09886270139831156,"200":-0.06891990841583752,"201":-0.07988859624203366,"202":0.07615586331587336,"203":0.00611057342990092,"204":-0.04518735075601838,"205":-0.003309509600387664,"206":-0.00015759327873630886,"207":-0.04339586457593792,"208":0.06354178686119616,"209":0.006593294397048508,"210":-0.007707876872633425,"211":0.031623615630238605,"212":0.036402976022632025,"213":-0.01980387421547075,"214":-0.012392765398621382,"215":0.046965481297834205,"216":0.0032039913709902934,"217":0.11940248821587958,"218":-0.0783922969517934,"219":-0.014403466594197216,"220":0.05167318942611754,"221":-0.05552553298559411,"222":-0.03624138860214566,"223":-0.002381316045014936,"224":-0.06146122409319279,"225":0.10731557970295617,"226":0.022413897612328374,"227":0.09884151436640998,"228":-0.037121858455969686,"229":-0.010103856623314585,"230":0.011529024514988238,"231":-0.03506969613832059,"232":-0.037496572692369806,"233":0.02280912706715411,"234":0.01933389691587391,"235":0.0024077743643141957,"236":0.005097276059091411,"237":0.02785741689209122,"238":0.029871386148976803,"239":-0.007560678607641887,"240":0.05742601223027361,"241":-0.04313609150556075,"242":-0.12464473177826915,"243":0.011740671389601635,"244":-0.04742223235700581,"245":-0.10369839928700508,"246":0.004790901847058416,"247":-0.050155358127838556,"248":-0.020045336698473557,"249":0.014163867286997981,"250":-0.0950891463669268,"251":0.013876930937964082,"252":0.00771245386173094,"253":0.030068575644625825,"254":-0.009099388159833218,"255":-0.08517564559850518,"256":0.06050495084915248,"257":0.02181354482155267,"258":-0.016609388815515255,"259":0.02346451351017701,"260":0.026422191448448793,"261":0.03236017925592112,"262":0.057384296371313884,"263":-0.10340450314038706,"264":0.05147941312947677,"265":0.013172521954360207,"266":0.017556658547927578,"267":-0.05267162250260092,"268":-0.08351221012123879,"269":0.03056843670864867,"270":0.03676899152399058,"271":0.09094523517471526,"272":-0.016641269367911878,"273":0.03446834264153414,"274":-0.04554768242482366,"275":-0.01399899706641429,"276":0.06032842764605034,"277":-0.009847009855304898,"278":-0.003134357776953627,"279":-0.025194876625824647,"280":-0.0223424568986669,"281":0.042181135867267606,"282":0.046698229736847716,"283":-0.019582636709869043,"284":-0.04994767333779337,"285":0.03324800062465729,"286":-0.07409747621591967,"287":0.05152228235073744,"288":0.04107593687086931,"289":-0.09096580123255445,"290":-0.07770408885479858,"291":-0.12297035642528407,"292":-0.048625733672619215,"293":0.022289462182843698,"294":-0.03805579038262129,"295":-0.016613542448896103,"296":-0.051205666070816766,"297":-0.0737640623849313,"298":-0.016192519773477257,"299":-0.039378311238998404,"300":-0.04029624584823881,"301":-0.007588427213332486,"302":0.06556138782368647,"303":0.04520285156606366,"304":-0.04629435544242264,"305":0.03669415850001983,"306":0.0520060998732961,"307":-0.007317584288186593,"308":-0.034834174492842915,"309":-0.04750714153206094,"310":-0.0007949064128347768,"311":-0.028446109469256794,"312":0.03067264817424283,"313":-0.010281335012954581,"314":0.03292399966315552,"315":0.006007275794440868,"316":0.022222410994099977,"317":0.022583293629150313,"318":0.009275035386218794,"319":-0.026583276124567047,"320":-0.10533511043562745,"321":0.052705725452950485,"322":-0.06266486954818234,"323":-0.03737244677805874,"324":-0.013954202846602861,"325":-0.09764918638436541,"326":-0.08743491386177181,"327":0.016800483812616937,"328":-0.04200800077118163,"329":-0.028112398012839553,"330":0.10965353517255011,"331":-0.05601239461290183,"332":0.01263207799260775,"333":0.03334632287294664,"334":0.09059766670341447,"335":0.05338298655803162,"336":0.054767679923593715,"337":0.03972895347614307,"338":-0.06186630340195814,"339":-0.032726602197746694,"340":0.008593274696560812,"341":-0.05585091666824148,"342":-0.0880396134538401,"343":-0.01925749592287054,"344":0.024246220511542748,"345":-0.03943128146400908,"346":-0.023078132368465454,"347":-0.034011854772282676,"348":-0.06850597917114229,"349":0.029535946159571256,"350":-0.03267073283059692,"351":-0.006412348077510653,"352":0.12325398929339335,"353":-0.01956963220596175,"354":0.024390471582822478,"355":-0.11711438070561496,"356":0.03983093894382675,"357":-0.03018138015225438,"358":0.01320821382260182,"359":0.09139013747111745,"360":-0.03784230723729555,"361":-0.09940540107632137,"362":-0.05482855276587285,"363":-0.006353844486843478,"364":0.04265510232980543,"365":-0.025353253836195296,"366":0.011768189880349235,"367":0.04489678597621438,"368":-0.0647288873405867,"369":0.1068304997353291,"370":-0.05212849695193221,"371":0.08226625591655494,"372":-0.14351816780305662,"373":0.07414185278286495,"374":0.05456402521588686,"375":0.018364221809163386,"376":-0.028885846149855173,"377":-0.026301109973632757,"378":-0.014723617558615626,"379":0.022041770040977786}},{"sx":1,"sy":1,"depth":380,"w":{"0":0.06228168878740989,"1":0.07304158572691934,"2":0.015320160989232225,"3":0.00699518701928861,"4":-0.04997877884844678,"5":-0.04873702603969215,"6":0.11340845332376721,"7":0.1254942582287633,"8":-0.047018249188278245,"9":-0.04111749423293495,"10":0.07819842307528542,"11":0.0018617320237119383,"12":0.12618003469314737,"13":0.05057981561634093,"14":-0.04966789874559791,"15":0.01861869385761673,"16":-0.0018199845364673844,"17":0.12114234244359244,"18":0.10336519634879351,"19":0.025535990293520078,"20":-0.00504356761014191,"21":-0.05438880765908957,"22":0.07313051960048493,"23":-0.06841662826336618,"24":-0.0420746410503108,"25":-0.011593304942696767,"26":-0.005660107458837094,"27":-0.03833913139756145,"28":0.07137044233609355,"29":0.027256792590784357,"30":-0.026163335702253775,"31":-0.027327384231978738,"32":0.02425312623577334,"33":0.11058848604301114,"34":-0.05296630253029194,"35":0.06129844245439738,"36":-0.008326665543754525,"37":-0.005505019405675228,"38":0.023113349091503567,"39":0.08196553365834933,"40":-0.017098120981484017,"41":0.024555948630261833,"42":0.299285034993593,"43":0.045677391367026844,"44":0.016989892208053917,"45":-0.0642848941863156,"46":0.01955083490724078,"47":0.2803081926163676,"48":0.0020885928969695397,"49":-0.0013695793326170852,"50":0.056492203932622095,"51":0.043984895496590355,"52":0.02948976347220101,"53":0.051737644200177034,"54":-0.0696404055096755,"55":-0.08265324782595616,"56":-0.05262589577698944,"57":-0.007817397682551772,"58":-0.11873995796692365,"59":-0.06745673591987207,"60":0.04351780225728945,"61":0.006995481226251615,"62":-0.02231664793786102,"63":0.027154499205366407,"64":-0.06111951035736951,"65":-0.08031220010608374,"66":0.05335089045296911,"67":0.12577196873127314,"68":0.07734241052128679,"69":-0.10877314533264067,"70":0.006110815875817438,"71":0.003742574730340314,"72":-0.05233760100995737,"73":0.09047652339056751,"74":-0.0004313333518018859,"75":-0.07853617958669912,"76":0.0011911638284775694,"77":0.025206294508108792,"78":0.03362496141989889,"79":0.017850815696468604,"80":-0.04398109672742516,"81":-0.04319958529476649,"82":-0.042725909003467955,"83":-0.016170523797498046,"84":0.017316414050894086,"85":0.02438937683844799,"86":-0.09957755477652461,"87":-0.07341771885546394,"88":-0.047612693996196345,"89":-0.06280154891353132,"90":0.07551491981280091,"91":-0.07323542235501285,"92":0.19108105094348873,"93":0.05443783594940111,"94":0.05700752912040651,"95":0.07655103475755824,"96":0.031003502037323476,"97":0.0026983374075282944,"98":-0.07395049736477992,"99":0.05460732002951566,"100":-0.017002155149148757,"101":0.004977582886268176,"102":0.00009743049485326586,"103":-0.010745450438751221,"104":-0.05765629801939164,"105":0.06955981671495708,"106":-0.08049856481267748,"107":-0.04769078981679352,"108":-0.10304851163616072,"109":-0.005345801061627319,"110":0.1044299792781971,"111":0.030818597191068418,"112":0.03810927946092998,"113":0.023739397245193923,"114":-0.02358043592300953,"115":0.0185442286074262,"116":0.03147686486705139,"117":0.007714982909674096,"118":0.10215216242282739,"119":-0.0005244556684225388,"120":0.0011262955216644137,"121":-0.08821575722149229,"122":0.047376357996627184,"123":-0.005401725198226289,"124":0.08722465585503181,"125":0.0020361141903933295,"126":-0.007006426586522953,"127":-0.02360927071796771,"128":-0.0024152792819601373,"129":0.007108651525623299,"130":0.06812082155444178,"131":-0.0023923550887379632,"132":0.09660484581140434,"133":-0.03528593697184218,"134":-0.058577136862790265,"135":-0.020030343602908948,"136":0.003962326142282422,"137":-0.03266214347655127,"138":0.001172792894235913,"139":0.07410923417287803,"140":0.04965411322579932,"141":0.02438362100501806,"142":0.042699134178867185,"143":-0.00996951294989275,"144":-0.009919473562241559,"145":-0.019343037025339693,"146":0.048116615429476185,"147":0.01028763552784362,"148":-0.07955993604496191,"149":0.0521292306064327,"150":0.0640904318448499,"151":0.007592805104795098,"152":0.060317917339039705,"153":0.0647130595997888,"154":-0.035948954035901357,"155":0.04612474094410866,"156":0.06546231478855201,"157":0.09979596025884671,"158":0.03374693373269181,"159":0.01743534135286006,"160":-0.014397573395006153,"161":0.01550208728353949,"162":0.01385830084756973,"163":0.15177606777202593,"164":0.025755863691134494,"165":0.013944719385812382,"166":0.07670540402661141,"167":0.0008033643674414333,"168":-0.026436589071558093,"169":0.07502369389948028,"170":-0.03277172902803478,"171":-0.0417369189248682,"172":0.0636235927929302,"173":-0.05054694935716851,"174":-0.05131289997155818,"175":-0.03563410267023824,"176":0.03195037403584562,"177":-0.04860574298613435,"178":0.10856685536694119,"179":-0.02433817377442075,"180":0.0029705268379121522,"181":-0.02874467277352872,"182":0.02269861434954154,"183":-0.030104040016463284,"184":-0.07770036295453675,"185":-0.063120115211817,"186":-0.03652292942059984,"187":-0.044980960006352634,"188":-0.011442242990132764,"189":-0.02666172758523453,"190":-0.04325782073294461,"191":-0.08447508685535814,"192":0.0038998170917024597,"193":0.013634592934883966,"194":-0.004321040427980745,"195":-0.07410525115600768,"196":-0.00318595864939745,"197":0.0537503279970351,"198":-0.03269178405526859,"199":-0.005529275796158787,"200":-0.04174548920995631,"201":0.043894049254567295,"202":0.07485287027970593,"203":0.059717581302040905,"204":-0.04041770507705955,"205":0.11850038215155768,"206":-0.06410217335513528,"207":-0.06415098029173621,"208":0.041768585585160334,"209":0.10103492773069137,"210":0.029776500579741426,"211":0.0032606158618017898,"212":-0.0037750686986573836,"213":-0.0013554149122431683,"214":0.0036071142481169443,"215":-0.04823788926212327,"216":0.06328609013832368,"217":0.03463395372735434,"218":0.041997174514969426,"219":-0.023934906142304632,"220":-0.008882089554761547,"221":0.013212994025192201,"222":0.05501266802343539,"223":0.0586086684342648,"224":-0.019752681215811186,"225":0.037742763193795305,"226":-0.0065383686225208085,"227":0.07298364614853703,"228":-0.07274626607141277,"229":0.07181278287254177,"230":-0.0036641002354769747,"231":-0.005091297160908491,"232":-0.03582682693911919,"233":-0.028718777893925327,"234":-0.008784477516521488,"235":0.008701580597778698,"236":0.04333427803912235,"237":0.07741719055304087,"238":-0.04363346795511907,"239":0.03696526627599745,"240":0.08271086173652582,"241":0.06775193588313096,"242":-0.026256886055010063,"243":0.05226715975561006,"244":-0.01616918345492487,"245":0.011923791193548878,"246":-0.05772041303708591,"247":-0.013983818512630012,"248":0.008997935982912743,"249":0.009931840133013216,"250":-0.08108767230720534,"251":-0.00794036698272587,"252":0.10773998350371435,"253":-0.06782464934218352,"254":-0.03136158116217222,"255":-0.053077908550609704,"256":0.030730087077230704,"257":-0.008197539260200365,"258":0.06287581981429163,"259":0.027828687484142817,"260":-0.07159537040132863,"261":0.031002860879681973,"262":-0.10146567971717686,"263":0.03145838678303317,"264":0.011758110750171908,"265":0.023448775934958466,"266":0.019516924758318174,"267":0.056673675856992706,"268":-0.0007007972868248901,"269":-0.00150257563225877,"270":0.09321377165672201,"271":-0.03835772402029579,"272":0.02165974876046268,"273":0.03016797283953943,"274":0.03628355286380368,"275":0.052854594515443463,"276":0.0034419971726687934,"277":-0.1346943094630383,"278":0.06709330102663875,"279":-0.016853978001704968,"280":0.048782231893206685,"281":-0.0347293746200228,"282":-0.04015097010052862,"283":0.03371475480510597,"284":-0.018162285919319072,"285":0.023332707134347812,"286":0.03273788064859073,"287":0.049451123559919714,"288":0.06983381175672974,"289":-0.022596484960115782,"290":0.07316823943438004,"291":0.0806935233007205,"292":0.04422418255334173,"293":-0.02999663953436098,"294":-0.020141198953882136,"295":-0.0072769621750141495,"296":0.07013334993089776,"297":0.044697277464629495,"298":0.03248614465153234,"299":0.031936945150807715,"300":-0.06581663217622,"301":-0.04849696804274637,"302":-0.06347974480514972,"303":0.02666351316803238,"304":-0.03875529404288803,"305":-0.07990335996191751,"306":0.0674967342388687,"307":0.041116539699124724,"308":0.011269956709556925,"309":0.052233773760911234,"310":0.03696764955198775,"311":-0.0736246408429278,"312":0.030749021985753928,"313":0.008227419324358123,"314":0.01700767125271848,"315":-0.015221604436108664,"316":0.07519500974178778,"317":-0.0748674358748848,"318":0.035349556211662275,"319":0.028200058324960864,"320":-0.009113270975803346,"321":-0.042555157186883553,"322":0.035074480747363884,"323":-0.016067950579542578,"324":-0.016926828150784706,"325":0.036962573361944875,"326":-0.02935664801303709,"327":0.05087413439971565,"328":0.030790689654201765,"329":0.03359489004790604,"330":-0.07562881545657253,"331":0.08903363191184627,"332":0.03714494207115451,"333":0.041307100898073795,"334":0.016675322185380953,"335":0.025813012188018177,"336":-0.012064108092508082,"337":0.030359721966925747,"338":0.07122527947165541,"339":-0.03167373834628015,"340":0.16490959867114935,"341":0.05698227887754308,"342":-0.04082720345387465,"343":0.026160415251004498,"344":0.009238360854428486,"345":-0.04590539458369982,"346":0.0686608668648223,"347":-0.03431648553114677,"348":-0.02307406600750355,"349":-0.04503007911438916,"350":-0.002015726757142536,"351":0.007935449315210456,"352":0.033449797887377855,"353":0.059044529025387864,"354":-0.024825900576328663,"355":0.027678775977535146,"356":-0.07219654686694706,"357":-0.10849517875027453,"358":-0.011336233532664589,"359":-0.041000034850369994,"360":0.03411376531979713,"361":0.003225810245638509,"362":-0.018123372570551133,"363":-0.015778825870999536,"364":-0.021176141176794998,"365":0.052950637616802396,"366":0.013292016706084285,"367":-0.009838498447701806,"368":-0.02169150679775008,"369":-0.04749517891122363,"370":-0.045383684250123596,"371":0.07909438332920059,"372":-0.0329776847679686,"373":0.036397393973159574,"374":-0.01719976694263742,"375":-0.06765269667813255,"376":-0.030786848283784942,"377":-0.037573839164751176,"378":-0.0009166885346048735,"379":0.017952369001156283}},{"sx":1,"sy":1,"depth":380,"w":{"0":0.002507631160557556,"1":-0.09911028740312892,"2":-0.03161790081465003,"3":-0.023428414406610313,"4":-0.012007150986782738,"5":-0.024443408431526335,"6":0.11322871856436616,"7":-0.0036972584252558233,"8":0.01535357647890253,"9":-0.04730117533423415,"10":-0.019323437451757755,"11":0.01668669815285946,"12":0.1022964745575274,"13":0.010030051622303932,"14":0.08933623928635225,"15":0.07303645829422083,"16":0.027611855882838342,"17":0.055737133630365844,"18":-0.08193485061275393,"19":0.07699024383822266,"20":0.02714623926425583,"21":0.07452704902938559,"22":0.04821872881719907,"23":0.042111900925771426,"24":0.02485229451748063,"25":-0.036165947801144106,"26":0.13286224490789705,"27":-0.08912816881266522,"28":-0.060344444371541066,"29":-0.0019611554079510293,"30":-0.059694746876395366,"31":-0.041680623775425786,"32":0.003010170560407832,"33":0.0063280818494336945,"34":-0.07936533979744427,"35":-0.024021209982151213,"36":-0.02882683824726877,"37":-0.08467010078626316,"38":0.016443742233408234,"39":0.03387678062049181,"40":0.012564147365954346,"41":0.045749546224656545,"42":0.22176940365592052,"43":-0.03801952323128152,"44":0.035580615070662014,"45":-0.0038971848283502423,"46":0.03734224824215881,"47":0.34496390209742545,"48":-0.04565727000251415,"49":0.0029898061552171046,"50":0.015109876102228446,"51":0.019409613959890555,"52":0.057897076093947106,"53":-0.030228771812340523,"54":0.06011912096645703,"55":0.0016843288386035433,"56":0.029735501751197043,"57":-0.0018865870081595135,"58":-0.014391567357290946,"59":0.02250808834142153,"60":-0.05831700579355351,"61":-0.0775688987225417,"62":-0.018325085367509437,"63":-0.06790241170395075,"64":0.012237903677261016,"65":0.018524260470406246,"66":0.08818502700378787,"67":0.031188793203704834,"68":-0.12526692301723938,"69":0.0075902277231824425,"70":0.035700185499210675,"71":0.045271655167580714,"72":-0.00033477826778735694,"73":-0.02971859129695152,"74":-0.053299514194335575,"75":-0.07612630747762593,"76":0.11171801583200282,"77":-0.04933051593289571,"78":-0.056557133506517074,"79":0.061872789716144946,"80":0.04682807640774199,"81":0.005058777726234219,"82":-0.02352107805046852,"83":-0.05301477320591216,"84":-0.006763162712611109,"85":0.02716486115218765,"86":-0.027141866653144168,"87":0.03604311414357942,"88":-0.004332873598158976,"89":0.04942634340533799,"90":-0.017143178157624818,"91":-0.11769926345221178,"92":0.04315291925758236,"93":0.042790595454099654,"94":0.06397352168593796,"95":0.11369561248909084,"96":0.04744265000087117,"97":0.15221006202818985,"98":-0.015878232456954702,"99":0.01601146245210483,"100":0.008751481529061666,"101":-0.003702432712598677,"102":-0.01744972362471031,"103":0.02002065006427659,"104":0.0036847812498830047,"105":0.02395258850282516,"106":0.07500702126105568,"107":0.08012976860497088,"108":-0.029294428458736744,"109":-0.017268777251306697,"110":0.003612317329084336,"111":0.03884912476682881,"112":-0.029796213524431295,"113":0.007186983489902403,"114":0.013297233253129086,"115":-0.02363842754520396,"116":-0.09864749061173428,"117":0.06048224185211793,"118":-0.004575865608968385,"119":-0.008795695166518203,"120":-0.003459312913514864,"121":0.028720177994591135,"122":-0.01870281388958429,"123":0.03827230422985597,"124":0.045564095082471265,"125":0.059897501365179455,"126":-0.061397970943516685,"127":-0.027124483780518148,"128":-0.1080458398491527,"129":-0.06159472269321672,"130":0.0155445953215126,"131":0.025393767133788447,"132":0.037783278325389365,"133":0.018883616093489604,"134":-0.052118717534723503,"135":0.0319693601714644,"136":0.05203961121935194,"137":-0.04156219546876335,"138":-0.027457953402786433,"139":0.06955532889167769,"140":0.07452700778477343,"141":-0.020003148498558394,"142":0.04496595904119677,"143":0.0219148577737147,"144":-0.07520320564511414,"145":-0.005998978995513826,"146":-0.011919569784544328,"147":-0.00370715664141788,"148":0.08532854712755124,"149":0.009683336809988258,"150":0.035318707137152454,"151":0.038688844935292795,"152":0.06978410492805472,"153":-0.024818683478501136,"154":-0.08580296834929069,"155":0.002957375548164618,"156":-0.059488346785918,"157":0.029463954307021235,"158":-0.03393992400883726,"159":-0.01725970009333373,"160":0.09294980074759783,"161":0.03367475975284734,"162":0.056214066867587655,"163":0.04204943097516858,"164":-0.033879748865854105,"165":-0.05070701922904218,"166":0.0008737994896681521,"167":-0.025308081395069293,"168":-0.06213896796198537,"169":-0.021809479592140378,"170":0.08408792859683378,"171":0.0620749277746747,"172":-0.019130909021432767,"173":-0.04493147707870182,"174":0.036873273631587364,"175":-0.011271956649498026,"176":-0.026559572817855457,"177":-0.008831152715995683,"178":0.07763292383013148,"179":0.05051949743779301,"180":-0.07279303797343971,"181":-0.06006460626680192,"182":-0.055183777817680184,"183":-0.011616549651525178,"184":-0.048286921914209725,"185":-0.028280295097347793,"186":0.06445922122613101,"187":0.07044160024575576,"188":-0.04944138975962537,"189":0.0586023779170493,"190":0.05793912742515901,"191":0.1258515273992681,"192":-0.04800856173359142,"193":0.05649990125620785,"194":0.023797720935122182,"195":-0.003526583110293928,"196":0.05546620018190626,"197":0.005951147013320704,"198":-0.061993754236811624,"199":0.020239450758500227,"200":-0.026762878644634763,"201":0.0028134269208751127,"202":0.0005258075654287616,"203":-0.0123443586490791,"204":0.0500913229432217,"205":0.0701223595224959,"206":-0.04391374625159068,"207":0.06128329377838071,"208":-0.022551792849171273,"209":0.01777558953082694,"210":-0.025924244428085812,"211":0.01900792922595042,"212":-0.009519809838701826,"213":-0.023925498353928532,"214":0.047564455608187166,"215":0.07921672289315612,"216":0.028086770347446947,"217":-0.022331947407089853,"218":-0.08936072037478755,"219":-0.02635985190644745,"220":0.009709312148822324,"221":0.03814852552234957,"222":0.01228735035378879,"223":-0.0446389381284201,"224":-0.04356014114351662,"225":0.028815774451846597,"226":0.04136854311475272,"227":-0.005450308665288965,"228":-0.06927681253595223,"229":-0.026356110202263344,"230":0.021428797269388605,"231":0.012398942369198734,"232":0.010034716741373972,"233":-0.029418211756233617,"234":-0.014634416940326665,"235":0.021084522900578946,"236":-0.03751602174086504,"237":0.022526601464239723,"238":0.0736176852794295,"239":-0.004722340628610094,"240":-0.08454444049381467,"241":-0.020605727450953733,"242":0.09055313640866866,"243":-0.02769270085714459,"244":-0.03687835324848731,"245":-0.029609348771471183,"246":-0.08398560872019023,"247":-0.07479619529718677,"248":0.07554153244675477,"249":0.05900326476009552,"250":-0.024744513444782082,"251":-0.022156309458491136,"252":-0.027805312411909484,"253":-0.004134095928959989,"254":0.0894111560784375,"255":-0.044448285552381596,"256":-0.11642188314639532,"257":-0.008000029864809369,"258":0.01713012757454488,"259":0.013209965230070755,"260":-0.01280107551094871,"261":0.10086525196481495,